1000 20
3.8190324640368214 3.292760133068546 4.052167020995128 -2.938787316444944 -2.2662506782556857 -3.55953233469122 -0.5594585860678611 0.7914593412344919 0.7998072775748515 3.302510004317451 4.903700905460159 1.5792645715118692 0.8030740882704555 -0.06082659127370782 -0.8947794979449641 3.6603058222178824 -0.30817768476696195 -4.428216554954498 -1.615037875845764 1.9077363347331513 -53.399713479854
0.03871953613611456 1.806012004368566 -3.9624204174377766 0.5481042886621443 -2.261953217996723 4.629927022062679 -1.268824455658569 -2.262837493436783 -1.9301414050427566 -3.096964704132621 4.074711355317932 -3.4268610940788524 1.0173180975801666 4.768894499383627 -1.986845561370243 0.008789855959811632 1.3199472562025347 4.449243724579372 2.2422905736163843 2.0959521841060162 80.40172847222533
-4.609112014830724 -2.846494705442039 2.0204878361753718 -1.020260258336707 -1.9444752203431448 -2.681973580488981 3.1687635625557515 -0.6342745250663953 4.493215637060876 -3.6311168266209384 3.4554803955794977 3.836473111593719 4.960566717518699 0.505967008444145 0.6336889036608202 -1.951978936687302 2.4598823164784323 2.781146206442288 4.349965314039 -0.9546772376804489 -55.70208562510779
-2.737337293250669 -4.571714081186951 2.656458307341004 -2.8945238278064034 -4.0179364137652565 -2.0845333535763446 4.7504613606742545 -3.5918328638533312 0.7091888710015315 2.7984033627719205 -4.5637151051445635 -3.7925594781790375 4.683531072872267 1.147944806697918 -2.984040891014704 -4.245301775826987 -3.4092367638244223 -3.3095419389569503 -2.539121981733442 2.4278356945760082 48.86740635385078
-0.052979171219358356 0.23376882694909806 -1.484958428683243 -4.098077043202294 1.4013378844657787 -0.71952246164774 4.840465178146895 3.9811049873124773 2.089267717585031 -4.743750813441999 -0.13410604885120936 3.8701647608288763 3.9985916314180585 -2.852720039614632 3.3066700686535437 3.597114518743677 -1.7829457162941975 1.9880616412316776 4.244700506369682 1.0989393866412458 -101.18275649812871
3.3845640995360053 0.7745125391078931 -0.7962051247967716 -0.40118972668113617 -0.8488966622425922 -0.18472701183517426 -1.1649155217693274 2.0605925634107134 -0.1875891000883545 4.04614533954253 -3.596662119851448 0.7175569397587376 3.9725545877501425 2.0180168442713224 -3.471319796434309 -2.6442313379653735 -0.14476958465523992 -1.4575307074298216 4.830382627067175 4.840324008513672 35.268854162717474
-1.2728676246466852 1.813068239375422 -3.933366712525199 2.3374268636933415 -3.245750823028594 4.082692955776539 -3.6464058232797525 -0.05145628207811015 -4.983745405113274 -2.131920120126285 1.294335322528127 -0.2516864492479618 4.281796411777645 -4.49352803831229 3.940772684791394 2.4807897779542545 1.2095277166268215 0.4583020162575142 -2.640087657029575 -4.8826033064103544 26.86862360437572
0.4903737449704906 1.0892748342467868 1.1560056653888493 -2.0709444661057477 0.2507055953446855 0.310087884718957 -1.5110897870030602 -4.174470987269865 -0.3778792752601987 -1.6600725702573915 -2.5696547817920443 -0.33927083590125484 4.042089731597487 4.981298033528036 -4.954580211715185 4.18044453295127 -3.8004137889514222 -4.353619073766741 -2.5815532207608194 -4.694258036835476 23.13823141677568
0.00023335042893446456 1.8614656355709682 1.3211257463992983 4.388537872807801 -1.6091745753823572 4.627066382124408 4.442496488984963 3.07205417740213 3.8595336470420563 -1.07166936870573 -1.653769229035503 4.756369479258906 -2.3741619867409636 3.840006295282979 4.2537268864083835 -4.737124936074899 -4.302824151427023 -4.571254590257756 4.281175940781223 1.8507168565274927 -25.21959176020419
4.290891308266843 -1.3434376887130481 -2.775621199457361 -2.0891860014616856 -4.9764029831216785 -1.779675146961568 0.5473886930466438 4.892187636963856 3.28916742820023 0.4361450987000284 -3.4732121224628076 0.19688293586654027 -0.6339361665095673 0.09658144152427628 -3.65081174280117 -3.060929119590968 -4.877187706136732 -0.20034954024732787 -2.9970224207570895 -3.3480980151877904 6.830378472205645
-4.401211510080373 0.5929417240159811 -0.8286858283995908 2.3424675133557127 3.1901622516223203 3.911635435428458 2.7809221930255514 3.0623285837381857 -4.622276996613613 1.646049581932414 -2.1920884929207096 -1.4841262033843696 -2.724881418300722 3.3175152315850145 -3.5197776009431125 0.8359424065591732 1.2931049844107836 0.01997398060740707 -2.1493732099737284 3.6611739830073695 40.90098469871403
2.542049637598442 1.6232838073567502 -4.835491415639045 -4.201013530886999 1.0944166826812785 4.761843611621126 -4.09013563777852 3.9301036495903787 3.9297030515967215 -2.984746890866179 -0.7928796575514365 -0.763303935501682 1.0029875668271968 -1.4487315350681031 2.6621291082901797 -4.625018726948174 -2.658775509930358 1.9831212954455202 4.251973542954744 -1.870521064872055 -24.636839066839066
-3.4473627652630636 -1.2494107682608444 -4.52599753088802 4.570700660319552 -3.47773534946918 -3.2154922597195967 0.24998517686054544 -2.136844617190418 -0.1187618517131277 1.27314569182328 -0.9152885153729731 -4.619914386800054 -1.8233580763663007 -1.7742042615244435 4.431046202201546 1.3781921059035565 2.909637957992227 -1.8505589573082348 4.3261165385457705 3.9489015473327846 33.022164630794755
-0.7515563799798821 -4.150998824169465 -3.7211913898937468 -1.4903520379753807 1.8448960723715624 -3.564937221295996 -0.09159654630321779 2.8446245870341516 -2.7399469620336836 1.2742024774364102 -4.399057254482376 -0.2871969458981738 -3.639191994750637 -3.9683105245280013 1.4649439354846638 -1.5435559274439137 -4.675896703758116 3.321965709516281 -1.786306689523661 0.8150023982787218 -34.01832698696135
0.3419930515437395 1.8088097433846473 4.323127558377026 1.0707321621357577 4.293520630845686 -0.6913831506290888 -2.231387914297817 -3.7902781566996646 1.87814552296555 -4.383845270194757 -1.1363281220395525 -2.7421547019970136 0.9818923871018956 4.460820587381413 -2.381514368307205 -4.32578760423074 1.255402797551323 0.02476829307270556 2.989067156958641 3.6408712403956702 37.13542223386847
-0.5700300504349718 4.417529775961157 -1.4301452233999044 -2.1929420755770623 3.9278687130129804 -1.1723860072273249 -2.1212233664795055 -1.5120607466795013 1.4008126220507382 1.2042273664478254 3.3478729221201657 1.0550834507490636 -0.7845455784774451 3.8644246829009354 1.873114282219416 3.3807857444032923 -3.4064906545250073 -0.11013763808842825 -1.609033400389579 1.9200071651098227 -56.455459139365885
-3.557188915222315 1.7287102036565907 -3.6406102970155683 4.5201296398611905 -4.496891305971077 3.9855597557508435 -0.8684684584531617 2.7808180823348936 0.9294075129617525 -0.4095898228822312 -1.6308751728963422 1.9572417010272103 2.6496491962849342 -2.755597255407769 2.469477178156266 -3.2820893011883943 -2.873924303771819 -4.2507659470275625 -0.20000769334913393 2.009896863835295 19.864210104463005
-2.123173690585088 2.517991205894501 -4.380376814359872 3.4324450667585023 1.9586924082277548 -3.586898937589714 -3.9368607069952946 1.7350901775413687 2.1241670722700956 3.6489947609760325 2.50593221022182 2.227696243141989 -0.7691494330535162 0.7919771630579291 1.535505541704703 -0.3717050644593485 -4.8007868322974145 -4.362635724215236 3.063419723118052 2.450486664468774 -64.1035118341221
-4.277643177904795 2.4838268871481084 -2.388038970763424 -4.45595611053744 -2.3356685182056927 -1.4895341367545676 -3.6695010310470897 2.255226358709212 -4.097054017088002 -3.819765496740286 2.5949848954310895 0.7508049478688452 -2.5232312713229232 1.6666226346673128 4.345737430468731 1.2496557796787409 -0.8425843410802347 0.5166828344934924 -4.614631486980196 1.373277161740253 -20.42113321822612
-1.4988952947937042 -2.165074423372878 -0.04979473288351777 4.944008490661718 -2.7503580183138188 2.3799873293487046 0.4969445016409715 -1.2814158584709903 -1.211912148039004 1.1473101539419028 -3.364416453945571 0.4178260103583229 0.3257961205168982 -2.5276081873075285 -3.2679798439601027 0.4255473460582202 -4.192830413979217 1.6608945904841157 -0.6168724537625536 -4.6996660657367855 22.0881160528859
-1.966401088294293 -2.443009707767392 -4.328530173407565 1.8651993583844808 0.10678780401594334 -2.4181347986614865 -1.8946007551064294 3.5116177742357593 4.200920954690918 2.3715378017474533 1.3375974954341343 2.983238201108861 -0.7780962221124295 -1.981255212454295 1.392707944662444 0.9640245010012389 0.17744851676104112 -3.524543213171254 4.371165464180187 1.6619012432881863 -60.820861484026324
-4.696372196622387 0.5734256706328553 3.215689772700223 -2.2457092132715797 2.8057423578079135 2.4080609648619404 0.4736678968954582 0.07292335420890517 -4.945960684096836 -3.9713880199376694 3.0429692738985565 -3.5405027797930675 1.7249126151863212 -2.6538778672362593 1.8144649841524805 4.892169124136267 -0.8620296896070414 -1.1940038265520716 -4.2732273347199285 -1.0475492416527588 -38.048898686255676
1.2322276285388192 1.8306988446389383 4.31805586366656 -2.9517856968729883 4.159284723811078 -4.1452926892926 -0.800115987303073 3.4103248145787397 4.747958358678819 -2.946497014900867 1.7151239711947044 4.263924530790394 3.890604633381601 -4.3437632686513 -0.011808872749612398 -1.6148032340231433 -1.0368037861642465 0.4054102190980826 1.6992040003972066 -0.3606090712201935 -121.52258039928168
-0.18740895187735873 3.4903294434528416 -3.9830272430882196 -3.483705386270015 -1.426803281728135 -0.2566479213349151 -4.512411101742206 3.111914178275745 4.144338548327827 -3.7383103678122476 3.742555822693941 -1.6337102954969152 4.536592220055086 0.9629037425824212 -0.6183482116018606 -4.22566238184633 1.2281367257826403 -4.378583943772375 2.0342976638668233 -3.836660037453904 -12.71593331633342
-1.288499217758392 2.1689332871092324 -1.0282437209674997 -3.9101181496660176 0.5649868177625796 -2.2735363856832924 -2.139124074476496 -1.827716315652439 -2.9188450517492184 1.9807276557351887 4.923930251864327 3.714900669754167 0.930863868313824 0.2679921062303805 -0.9664616828018016 -4.9803285242198445 -1.0584074792695333 1.5019597248031138 -3.729336939472141 2.8275820206501034 -15.811449715805725
0.9607063866429435 3.1893653024477846 -3.183217015325215 -1.5498090801115358 -1.8071290666037276 -1.9712748177846229 0.5839407502862581 -0.27496011799318687 -1.8254753356270106 -1.427292480687191 -1.394404980503917 -3.2255302641717423 -2.877745426379319 0.2460417525722134 -1.2305513520919487 2.326956671306486 -4.30340192965303 1.652854461447843 -0.057950354190017705 3.09994795336846 11.000108082805873
-0.16960398953248834 -0.8160184327253699 4.448250818964496 -3.125613846429738 2.342840877428869 2.031484509658677 -3.046516646555925 -3.9365138986060852 0.06278610511428084 3.266072952031717 3.4565584988976674 -1.0412723198811813 2.3835469861962 1.6451083629762753 3.6372280761687232 -3.0477428476455684 4.706286981699405 2.5152475489406187 1.5131039129660344 3.7677571862727284 5.824735375530191
3.192632012166829 0.9768297583709451 -3.5947468095415234 -1.3396469830327251 4.5617902874283995 -2.003677306864833 2.4780294991071496 -4.266057817409493 -3.0515997874833136 -0.0815663054170912 -1.511122925469901 -0.9082210647481039 -3.6792569546387153 0.364333662460953 -4.347290533119987 2.9379395378229116 3.556971180834834 -1.4537605719368818 0.9356328079912348 2.5277095306729063 34.58588428497368
-3.191728291935514 4.500767357271986 -2.5328488372146696 -4.4206950727266 -3.1346747677444196 -0.638906144077219 1.034953097174026 -3.6641978193061453 1.7256102619063798 -2.2443967485128855 -3.7005001467833276 -0.030418903329208824 -4.842290142411762 0.41127725685963235 -4.762242062982197 -3.152531847250073 -4.102004822410221 -3.720832581567458 3.0526326980650573 3.9214995936907435 19.197334159434213
-3.6431876043147993 3.6823738369698695 -1.7481324562687806 -1.5150463507154188 -4.817356970642647 -3.894341963161958 2.9844410383232987 3.132946286210869 -3.083012795314133 -0.020124163177234422 -3.1704425313171667 0.9735199323497588 0.41475413004694417 4.875743101205293 -2.1887134561118304 4.937893909475449 -2.7420849457256624 2.5136476832026657 3.9937679570976137 1.2567735866704766 -16.507714152771996
-0.6602471699526458 -4.622612231455532 1.0626445856166802 4.986667590626476 -0.22255439538266497 -1.2208745119375242 2.2745288700103163 -3.929805016441973 -2.2341553801961798 -3.8281863782955283 4.984828851906718 4.10679468154591 3.266966502058086 -3.059376416986892 0.8118890214288861 3.264695833755514 2.7982827337524725 0.1206293596757737 -4.612099762659695 0.17866836994405588 2.3529285378270663
-0.13896797400820926 -0.9767707773317769 4.6996364142052585 -3.5407071657706535 -2.9447259686619165 -0.24440184326393588 3.2529680009604114 0.12046049845305351 -1.3923315772373925 1.9988743861794944 0.09960014558620145 0.6522998069716586 -3.2548000661609313 -1.995966146753906 -3.179589481974415 4.72746204448878 -3.4107284061403753 -3.708646483535621 2.3730013987731224 4.27465084079712 -42.8746074987862
-1.5737202363945855 -2.9574055714109027 -3.751483511098276 -2.783627772806585 -3.078579802492766 -3.6394861475538187 2.099515306730356 4.226246037025588 -1.5502775342254251 -2.2853365674157566 -3.7503317719082094 3.323140590258353 -2.4210889432361116 1.7909234359464064 2.7551402077287364 3.833128971671549 -1.0311877881727982 0.8526960745850101 -2.3068097101993557 -3.995434862969093 -35.84028890451761
-1.7472144859540495 3.8323729168431377 -4.407738263039665 -3.900794990479386 -4.30367416322974 -1.2606889229521476 -4.555642360675124 -1.027664075409227 4.422980832064326 1.1342568961857378 -2.132999621672702 3.6532090111135176 1.5525519528581437 2.3647488777012278 3.2105368123348867 -4.482962351821299 -4.393731391646263 -1.2867535793594387 3.678307413401358 0.3895842890896537 -21.96922959638094
-1.2490738066063365 -0.7944627945417295 -4.642615843299164 -0.10299222270310793 -0.944227747779065 -1.3041305121539102 -2.46693472437968 -2.865168493352578 0.9343365202079648 -3.9655085143185076 4.591893582720354 2.1343340092208516 4.657111045145276 0.6002581355715169 -3.8798446466519962 -3.033130507146733 3.4800977362558125 1.5058220308649233 -2.646490851683012 -4.31706631932774 34.13629071237539
3.9954167634442808 -2.8184565413109928 2.7297319663118733 -1.2208338753716474 3.1378533834882294 1.6266121511281089 -3.116510557714877 -1.116135640510496 -1.5126779521124387 -1.4922292595456477 -4.763978626915286 4.967880097836543 -2.4792613835217017 -3.6831185570928673 -0.2701135223534967 -0.09062868160504678 -0.16268031194680788 2.6555817086645517 4.1152512684528855 3.1912400622688892 -13.875630861050114
4.236594035019364 3.588981960098126 3.2782499683426085 0.0897558408801844 3.924227277374561 2.329312877577858 0.9096092500587813 2.059159204480535 -3.0323980716215617 0.8454707316490069 1.6865938254423831 0.37086709844823496 0.0634883587218571 -4.017452713981649 -4.034364217888019 0.5425294783595795 -0.6218680928871123 -1.8436497303060042 2.1345131788724867 -2.3523089015239607 -41.616443393831034
-2.8597004256187466 -3.267290552717046 -0.20925342949813608 -1.6321723347634465 1.6214993474400021 3.801627484182326 -2.5660284998336502 1.8109417152622065 -3.9190731056591988 -3.3432676772202976 -0.19289560102179415 1.8595456052853816 0.33040607507331377 1.7043757647490327 -0.013451184956812412 3.872863729278654 -3.2449818819530374 1.1690800035296212 -1.9109069171523752 1.2119238979945806 -9.216106575559415
-2.8171646811491193 -0.11593895666021314 0.44992658314807255 2.2097000446511537 2.570611008452498 4.550735225988733 -4.269849680694357 -2.4811421888905736 -3.3092200474914035 1.7062634994348898 3.351296313989897 0.8772815167644286 -0.47160225335681893 3.024279550480408 -3.1786613994120416 -3.122288131659605 -1.2715263648596018 0.5645205306476946 -1.6905542989238809 -2.3186530935218927 28.547289664021715
-1.7429640218995548 3.456119026684915 3.5385801429373096 0.1931046124948157 0.8763929225407807 3.1852396103064535 -0.5512214875206878 -3.2893883078279593 -1.397937202318725 -0.6944691747162492 -4.464361369651354 2.5268308159515307 -2.1004559883778304 -2.4006721730204896 4.8628450430270895 -0.5436448211865654 -0.8928096270340351 4.879587711653576 -4.58673646590764 -0.8705488560364891 -6.885293543247462
-3.5159204260402213 -0.43824561286865205 -0.1521725783896999 1.4997599768614114 -0.28631310455153347 4.15344508938275 4.109947680103467 -3.3432774058716497 4.436519651380674 3.3244402932639776 0.2808834320097713 -4.058019034174981 4.652318690240143 -1.4620127431556682 -0.5245645523007845 -4.232041470761706 -2.5148834026179188 -3.5746917782025345 3.6750709313806453 3.5624083262588915 14.801521341081857
-0.5619125121000419 1.5717786652292691 -3.6326635643089524 0.8817394513645986 0.07299302037995048 0.5985657451457991 -0.7450516806444005 0.5543021732150475 4.580173017752161 3.679537263576666 4.569397783196077 -4.235435362175872 0.03912435474263454 -1.1405510678398691 -2.6643316446750775 4.937494461346958 3.4451433348076907 4.7677961447489885 2.602428986365118 4.026365523718772 -4.51160948651615
4.759646367797286 -2.109706253705219 -3.707650312266405 -4.875850767479882 -4.038935743459975 -4.869463886036536 -4.5116758202499785 -1.3335411387178087 4.053129425775609 4.29217136797177 -1.35264147944227 1.0967531356601192 3.2609865494977583 1.6576139614148024 1.4181991017648787 0.8801839535727378 -1.5144631052636806 -3.13600399539352 0.029213045742717547 2.31379465044789 3.0452603988062132
-2.929139396236178 -3.0338131698969004 1.8271599544718642 1.0669061491668383 -0.18048260360426305 2.923350229453563 -3.7109188515080804 4.719363950345903 1.313104073944106 -3.030076378677667 -0.6792062266657091 -1.378464766292681 2.1298718585186203 -2.5363262182915025 3.0944855088862457 3.1850754471660814 -0.45918721950691577 -0.4786943698914321 -3.170749164697245 -3.460302781774458 -31.820072712507848
-3.666898083961463 1.9571204034055212 -4.466968017060741 4.798373798304516 0.6524169861049502 -0.14328123864780729 -3.704774989741707 0.44092545244985004 0.22166764689658525 3.5920545793750147 2.5716239431087704 -2.809716910759823 -3.9104300866661 -0.5522646168536145 -0.6468291133107567 1.0002053446605705 2.4126024761370566 1.8589372008025578 1.982147598609446 3.501058812766125 15.385233958121308
-4.548969404555127 -2.891549385028843 -0.3510726734282841 1.2266673421253573 0.8562945555811963 -2.889576796254625 -0.8309842185674654 4.5143102668073976 -4.626454838449848 1.5507164947739636 -2.3512854444563502 -4.080416291276164 2.3482850105471664 4.827375742879337 2.261495386540794 -2.4451052886687075 3.865206112556777 2.5196628515611135 0.0879905169680475 0.18734719857874893 30.78345288068412
-3.71456490771902 2.198710395765139 3.653086327066367 -4.113272813311768 -0.08674475885378996 -1.8869887590324619 -1.3278678662909837 -3.0470893270520474 -0.4956408068400373 -0.29488749980781215 0.1982765027636777 4.099942833623576 -4.519718575133704 1.1963085166327705 1.5449286349440587 -1.2183204815215118 -2.841759753507395 -3.727731783359116 -0.4950674512973414 -2.7727952525792676 -64.9247645636635
1.7232445825440532 -4.144392456699312 -3.1509817699364193 -3.741776057063866 -3.075616414963128 -0.8183696998698569 -1.4014616314286235 -2.6174544258206356 -3.2568987320503417 4.131297371119535 -1.2238549492207138 1.085500569924628 1.7801068364024628 1.145221808628535 -0.42901185679531384 1.5223191110323508 3.382496195623549 -1.0485781152232443 -3.3869278348430267 3.2162552544503225 64.35240743535995
4.44271586712134 -3.9594765399698684 1.7261185657062477 0.21443229309865064 4.990221725888134 -2.131158935492752 -3.2817272671998454 -3.7873133084970423 -2.684087954181896 -2.89609491643535 -1.2897496838025146 0.35008812951583845 -2.4573276678389524 1.9772056775815896 4.947949282170052 -2.028546838393165 0.9920007589069977 -0.5591082055886787 -1.8702788141139304 -4.353853702743703 3.2081094766535756
-3.8670769044831976 -4.108451611933804 0.7365060806477661 -4.1118653035796875 -3.862668097764741 -4.1152538094466635 4.54397774639798 3.9414174850051875 3.115925284657843 -0.9035180274261805 -2.8472245738853017 -4.2718744938898965 -2.9303104630878476 -3.9982825896126606 -2.1771871684569852 -3.7379443353186756 1.683644023554014 -3.624700950259717 -3.4587806910950847 3.0146629587599243 -0.7053195773951151
1.317283873432082 4.092801239955628 -4.484371203088084 -2.2939906362753835 4.0155982380854365 1.9009053842596932 1.7337877666751043 -3.4834888139053097 1.3015529359404425 1.107072756476791 3.7640941253282136 -4.622190847078196 -1.09844521547114 -4.235357581330468 4.316558976226409 3.700951934860301 2.3102595327340136 -1.8422425235872586 -1.176668126032884 -1.0102768667898046 -30.72476647775608
-4.515365989533827 -2.422058607523707 0.44968616282113594 -2.9211662871839694 -2.267647390438783 2.1838044157047065 2.8712534983892724 4.328044945194058 1.8579298435918323 -2.648421670638438 1.8746781606128522 0.9458807471786752 4.870340495432968 -4.608174057986954 3.625142785026803 -1.0134980541901606 4.981069905385292 4.232980198669599 0.8710496402423207 -1.6114486260744165 -45.316708862027994
4.465449830588211 1.8579756281126478 3.469088122674828 3.495586459508756 2.7681814505535556 -4.2329274972842 2.598415632283942 -1.3220445939933931 -3.7416568486783106 -0.11387586776331471 -0.7607624871799876 -0.21473123625435342 0.2996862098087849 4.031537571525572 3.3722038415171767 -1.0810106792779495 1.5922216125116107 2.3816410036541305 -0.26524498214494674 3.415996124126332 15.521387052600648
-3.5743401671891295 -0.6206132090398384 -0.12839831223178866 3.114110882534625 3.1693300022093958 4.886691837585138 1.3678661495786484 -3.8419786203572137 0.38912099292265445 -2.2147213663827428 -0.8275311699427945 2.1428475507762013 -1.4897144847138497 2.268482327884863 4.682348465268204 1.867501530240851 -3.029178796483544 -1.4436756453625743 3.465375677976912 -2.1295903442437614 -29.12063714544146
0.8670644791666726 -1.7938871008181612 1.0500602421587661 -0.04663245241864189 -0.9985868919621499 -1.6623703141787338 -0.6879277513935165 2.031461035563745 -2.6765713171469496 4.126925778907605 1.347896539332213 0.8071941005575569 2.2093595440126883 1.204133649721805 -4.847077238093684 1.2091843310100492 -2.4447209935630223 0.03873227379149835 4.065248479912279 -3.282308768572052 -27.81021726097328
-2.7506512533027863 -0.6207085391838039 1.9836287941354582 2.5678460604388427 -3.203576128947515 4.709412735611414 3.7302529747988284 -0.4278224209850947 4.849128033156962 -3.398313352017106 -3.308014432036628 3.271553348112228 2.3942807945534668 -1.1497151167146735 -3.4677519860088504 4.115184452680447 -2.5894132952352145 3.030275109075939 -3.2198705220903365 3.2437194309089374 13.780403767106925
-1.6786246165416885 -3.740283398784674 4.858072139815473 1.8790769221390988 -1.9491383454977718 0.8422077329250186 1.0957032790482373 -3.128172954884808 2.6933089407154114 3.641035298968461 -4.197313229057695 -2.037875106707733 -2.923038418658966 -1.3930193798691501 2.4450234977772816 2.843392729581927 -2.083295627107644 2.528723393540316 -2.3540553312997803 2.556036833590813 2.2284812737402167
-3.1110297770072295 4.773014020072226 -4.128917358010645 -2.381936642618081 0.5481842826945904 -2.262189426344924 -0.9733167352329186 -3.3377618390397434 -3.908555943256611 -2.12071621870904 2.127725197692153 -4.088579147064974 -3.5295708313413066 1.0708915418559153 -2.0862367586970754 1.345765218011314 2.5521914195070474 -3.107881375953996 -0.9482839258274129 0.742442294070865 30.95926082707406
2.6057439308831594 4.39275172722925 -4.174867001014731 -0.3645738952305173 -0.33313710966463894 -0.7866174852016652 -3.6392371144099522 4.849318065056101 -4.944576781108715 4.403996870546493 4.072334201534986 -0.6688104962366896 4.004602354401646 -2.9085061929469025 4.712308668691513 -0.30155262250561954 -3.2020154586282326 -2.9528430956529075 -1.9036749508414221 -0.33517996485779555 -39.697332372397405
3.199420583101084 3.4145203229030265 -2.359509881944719 1.7129492469312577 -0.03180517985598641 2.6135212988218415 4.907860951668962 2.0820915950028827 4.072109657887998 -3.02690815230805 0.2640156409018024 0.932584376505865 3.819283705619025 -4.8452289198883225 -0.49173722359744954 -3.308455659931356 -2.654658811915077 1.4962411473430937 2.8630380409703813 -1.0316179756267907 -29.932565765028922
-2.434694732184799 1.4987964531804554 -0.592149917457311 3.7086847426167147 1.1175562843165787 4.593438644531737 -3.340236176321766 0.37347901332109057 4.641140184534102 1.3755401268063299 -0.08274912266664902 -1.4297829302931153 -4.432586650950611 -2.8050526561039533 -3.3021142650672406 2.040990956280689 -4.214317021752968 2.678464878085414 1.4005315346690708 -1.9152582098908022 -28.02221767299322
-3.3970581431768174 -1.9985314377380203 2.112598994077354 3.9589633496486325 4.0771571472442005 3.2808570862095863 2.8346014618123085 0.26477501866621367 -1.7327833580590726 0.9216020301780414 2.740827636096589 -3.86760880428871 1.4956919690553505 -4.004657533506998 0.11767963991020203 0.3428833716501085 2.6637830068372086 -0.05641182490397778 0.05624380858088429 -1.219163103424 -13.978203308154757
-0.7752188865682639 3.493504159876986 -0.7006413689699258 -3.8242127957505714 -2.9733638730909595 4.9437377596762815 -0.43633541782591045 -1.2852794893112485 0.646010470328723 -2.2236968715436243 -0.606835514901479 1.399894371231377 -3.310490066723686 4.307740199079079 -1.007940964986107 -3.6191926784759088 -3.891739643571074 3.3342316496409143 3.905911182810014 -0.5418166907405784 12.745806444489967
3.523436765361982 2.254197543660073 -2.4237627272157827 0.9670502536967458 3.3479072475056313 4.706248127352778 -4.231690626066604 3.9957963876715628 -2.6846227585944193 -2.0071426356394175 2.088882330810101 -4.03733381896751 -3.489304041644391 1.524862227218735 -0.00832832433593289 -4.296994611950041 3.7227584474671254 4.20648625812184 -4.542560992986435 1.2925020595953551 65.91722897304419
-3.798389102579062 0.7850038233001664 -3.4009418405106984 1.6613940171301973 -4.529256026570426 3.461233017971006 -4.238508465151558 0.8680760443002828 3.142994389198032 -3.955522587106052 -3.421042036593245 -1.6423972558941569 -1.0871824834793231 -1.0156227296679243 -2.4135561590813315 2.6443612521384168 1.01085828808327 -4.624479238802835 1.9947817592255026 0.631972319930246 48.3698720085111
-0.9101850404753344 -1.288715986180243 1.8360141121723856 -0.7636826181363379 1.910824488078755 -1.8097619762999004 0.800388362209862 -0.5801429103687417 3.1056211732651207 -1.325855020764155 1.3334233950839236 -2.0952646289241517 4.457423264849286 -2.778649641035779 -2.55849791429108 -4.383862918685994 4.495553906904414 4.47957249856279 -4.563066328910496 0.252193441544871 12.404393827512221
0.42531910659903804 2.487637788359499 -0.3610950898193632 0.9917324296112708 -1.7606564325670435 2.505934126238044 -4.122185293239696 -4.745276446716307 -3.145593293708174 -2.3314058437809715 4.503359241659009 0.2064998289379254 -4.535445205656439 4.270399102442031 -0.4026034612774687 -4.558842629446495 -0.9340133297890416 0.6768501959455699 0.8771384370368285 3.641243556818436 61.92382477713636
-1.3945971559819492 0.22571232272579866 4.350065971889695 1.3472398305649431 4.621142485721926 3.5739045937356497 -0.07931493543615886 -3.342583533410023 -3.7057626697102997 2.789728474433045 2.8201753205430506 4.392383216881711 4.105159929703291 4.625480555065662 -0.6110594264845473 -0.7316381213325567 -1.570654153364297 1.071939958748831 -3.7497099235422016 -4.933444523870105 -16.95284031241765
-3.7992997455787183 0.9814954291620159 3.1109262455691784 2.500980608966171 2.9042315977312763 4.9734850369220425 3.7855004080182244 -1.2863262615177518 -1.1865945517421315 -3.7826689131588473 4.9377572216688375 -3.8160170422484683 1.3090285291183523 -4.511958048721635 2.3675018542902206 -1.3641925506652566 2.8914154821037394 -4.875706088283581 3.4147240786555138 -1.6950403243665804 -26.36210907054061
2.1524899148535903 -4.095557007626674 -2.0645941537163615 2.933277656604327 -0.7341534699551078 4.604348843203383 -3.788487057014225 2.370066257195509 -4.557140662253376 -0.11610144835715541 2.5930372355295077 3.0255133853487273 2.025252449234981 -2.5611211724571947 -2.9163952642109106 -1.4831994225818637 3.8280817523294193 3.9130314441088725 -2.9813281857498253 2.2835756535843927 64.95808243482281
3.3301231809390064 2.9890656118149153 0.6426408972852631 2.766786484400643 -1.9485131239526021 1.1045412056527955 4.2176082779794495 -3.775603618517599 -2.8746203543260984 4.31441837891432 -0.028393575488728118 1.5820622569170615 -2.862172922379087 0.9484088959981216 1.6189702366878453 2.1209149542508055 -0.6049729366787124 3.837245423538352 -4.541064066894064 1.8672009866787134 30.413163565896916
-0.2836695458831695 3.7187028858377964 0.10329433809188249 -2.7057357737833243 0.009269222061806026 -0.9509075323491807 4.329906213759212 2.4716921980990323 -0.3363595913788515 -2.313585306346754 -2.7145264137326497 -1.4386490323218402 4.731992174099165 2.278350383360338 -2.900427606452667 1.989326412491236 4.688112630298406 -0.3410756407403328 -3.909688191100713 -3.2081584587059755 19.01658462982099
-3.974228027354616 2.0670709949233315 4.1186051845629486 1.896430875036689 -3.4236068474737835 -4.358443677459566 -2.4743856763379646 -2.0409698151278732 1.2798625651106104 -2.129121227897252 1.1926691655806163 0.8652781980746429 -3.0538017649854265 -0.4161137712304015 0.030600436255819652 -4.5476530699006465 -1.6108078836781403 3.3881008068837044 3.4719490217865747 -2.4108873710714853 -34.47208617605215
-2.3898126635583115 -4.7193049326489565 4.531987817754066 -4.464137007258154 -0.29183815813030556 -4.663345339877343 -1.2912825697836086 -0.9670531991825806 -3.081827657373629 0.8951405074490424 -1.3534000802868529 -4.4857495482964 0.16183838345448187 -0.9437282252238077 4.959464088060013 2.5342421490231812 -3.5683046134019802 2.898585511844365 4.248748384848156 -3.8424778082880193 -73.50967031964049
-1.2252835199071086 3.5907641639439785 1.1617661332398352 -0.34260720254152943 -1.8249987028881542 0.5800039571859026 -3.873917478404868 2.5191331674715727 2.514738390008848 4.058151958557666 -2.695856776635038 -3.059155307713594 0.2182040321411911 -1.4941011118601621 -4.375208290757442 4.936428289033323 -0.029088545645765684 -3.4365075610127005 -0.8494160090867906 1.4733043280700242 1.1771848466875157
2.8925238185399795 -3.146635900342547 -1.7847754879443558 -2.017674872780202 -0.2801085671399717 2.2645001348152247 -1.5957141558422503 2.767849259514734 4.876742571574166 1.9680781282360993 0.9928056070194842 3.0922379538540827 -0.8168752571317217 4.504697284837972 0.6364613161544366 4.800926426380395 -1.6621143733343025 1.0147217128202417 -4.554245124440712 -3.4176141458982734 -29.59566391732332
-4.883500935026107 3.360468650351198 -0.8628364790624303 -2.917206978397988 1.823241873791459 -0.43351175013558496 2.7511092707085085 2.1457825472683627 -0.9285491377851587 -4.07551634018972 -0.14616463813226588 1.7950627326238076 3.0764483628644896 2.2373378876058467 -1.3939524100682488 -3.494281657357364 3.4944852308708114 2.246106546826951 -1.3883804256261167 -4.789030934696481 -18.098543280149293
-3.5434424960343702 -0.8929427758410107 -0.9160581365130493 0.9809615348038587 -0.7595088881081953 -4.579037085872537 3.62804641985808 0.7129532938779723 -3.44816682839154 -3.4552478428329545 -1.313936684085765 4.529547813484699 1.1578290726791174 -2.8679958047588094 0.7844524313371082 0.7096989871218993 -4.022270547864155 -0.15020127673942785 1.2525765626361904 3.2771883169115164 -50.210001662010185
-4.956939447523515 4.4878213905817415 4.0452303789052095 3.6056716756273293 1.6360523459440843 -0.27840890635109616 1.7257604161650892 -2.899028903805916 -2.0308400552429484 3.2087740099905258 -2.260486127828396 3.831734143450557 1.0803350173952904 -3.05291574943236 4.350895247603148 -2.0945437707440364 0.5651981186777286 -1.1526979155481456 -4.255606382842023 3.1047375316614882 -22.3550247026387
-1.5475908548007302 -0.8599350391752338 -0.5040487854485196 4.239291118268003 2.83612568200991 -1.3944278744974135 -1.1346104317080008 -1.7355252168860478 -0.7213379783031151 -2.158541810726211 4.2456375281372996 -4.2491217374307215 3.2602575801861917 1.4808163488441162 3.889124636454337 -0.24662683988554068 -1.701922229832661 -4.231059118463971 -3.584418260707767 4.969990736055513 13.80357447903452
-4.379380295063012 -3.2389624298761865 -1.1906750335788563 -1.8888590040485411 -1.6101237160311834 -4.571458928293902 -3.3736144986052627 -3.2602149171589545 -0.147153220792271 -0.846337694246996 -2.9059754067281074 -4.828473850898389 -1.2186655176454044 -3.1186971614118555 3.236854839795244 4.548657308601323 2.141457239693489 0.35996595139105025 3.210761498977215 1.4616061608283335 -5.583971138415135
-1.6536864118010195 0.7331162232809643 -2.751908201690508 -0.7438727956410958 2.2372451046940744 3.7135552180261016 -2.8155342889935997 2.3068947906726294 -3.810519313713682 3.495399446187516 2.3424576284785434 0.8926242431112907 -2.8103539788114187 2.257013583063973 2.5453208972754897 2.1278446523570063 -2.6725669205703104 0.31543765162631043 4.362429823247867 -0.15749448877313643 -41.29293022451839
-0.17472526214233763 -3.4429549240423887 -4.809665983627866 3.8353530480614744 -2.3395901862494286 -4.187202950549066 0.06401446503942765 -2.495000440893139 3.9576904170449243 3.701171790889802 -1.2030451943747957 -2.963822869923749 2.4024305833953505 -3.2505482605384275 0.3014941480514741 -4.762884912724223 -1.7514996825693863 3.2992255935431487 -4.314682406098479 -4.134937814774582 25.045325137059674
-2.3153240276392295 -3.4876821197753536 -0.5655479517455557 1.950260177587026 -1.79886556827722 0.4058505536607617 -2.1551903578463882 2.53328586800812 4.614907427254881 -0.8095981947420636 1.3240156663962814 -1.0130406842997939 3.143959060806198 -2.6655117425646866 -0.6800248933234272 3.022179454277044 3.4256935377491544 0.8866142711836309 -3.7025816660138577 -3.8098653976647148 -8.056700161725253
-4.871959403353122 -3.5607812096868843 0.7725861796944402 -1.4539034341241805 -3.5774914458092955 3.7900415064749886 -3.9131679880358505 -2.9698671474485296 -0.653721576932905 -3.862130659314258 -4.794108387750019 -0.49440084864339795 -2.416046121891977 1.994739322180676 4.38990180991367 -3.8181409052419566 -3.788050922998998 0.78062713008622 1.924851770049263 -3.0470886131410877 27.957478992868033
3.421895914832401 -2.8806563559638674 -2.013288382924141 1.7375181047031543 -0.7737000273307215 -0.2828537372514459 2.692076091158917 -2.118666087090487 2.4417075936691965 -1.6611452565379823 -4.425851762252488 2.180620813784304 -0.49927381737588483 -0.9171582169476169 2.8224499464111643 0.20844638994501263 -4.658205426964297 -1.5670806201336065 -3.0406994498039683 -1.709328563146216 0.6476817224456468
2.0976355456763027 2.5867112072789276 2.4766459891560935 4.329936666052616 4.587383751739209 -2.9079503539991203 3.928843078721423 1.4360031406968368 -1.2354967728432764 -0.21233854568276112 -1.6905768262215606 -1.4401485672661316 1.5366036178329425 -0.08595442642065798 -3.8033489511397853 -1.5182707731902267 -1.9272060192542595 4.857341339319557 -3.6450685320983114 -0.3767617913930099 -6.11006788617642
-1.5023240186900266 -1.0863963794537588 3.6628824620107263 -2.896794894151209 -2.3394368844560445 0.8991674814330288 -0.8556768970797126 3.10676722272596 -0.8844194502933789 -0.223013111423084 1.7963727974572317 -2.8343554009609475 2.2258294919011217 1.6976441474096573 -1.8293295012460575 1.9329268759008489 3.7955381987694388 2.3337335158598984 2.9777534822525134 4.471199243963863 10.719162275828149
4.016347856351244 2.692258403190415 3.694918388236717 2.0799656958936303 4.978960626491009 2.410251088159936 -0.23617801816664308 0.9703820051131107 -3.0479202252538293 3.7385932010032956 0.47446497247069885 4.898412989473329 2.0288518939046885 -1.914535593330057 2.6916335500428525 1.9547661607045894 -0.9610834536431394 2.453871767252787 0.25450176317480633 -0.5618984547978219 -59.43599859989618
-0.6854100218671846 3.533119643571659 -4.813443081845961 -1.4595586274293826 -3.1226539361877235 -2.1766354095061944 0.02228744344103184 -4.620809162684688 -0.2710507780756455 -0.12156667391261955 -2.9587378492120986 -4.465719154444992 3.550118712698076 -0.4340211119045412 -1.2454486167973258 0.5503060211389847 -2.9444854460585015 -4.733617986631529 0.3253246861923076 4.390987085486348 55.329855586470956
-1.707574389649512 0.2487659781682039 1.6108076526182566 3.640545053171415 0.12189489969970602 -4.856516592148939 -1.4295979805180248 1.993052140038575 -3.2035542222778046 -4.133952002134666 3.8596036249910455 -1.317354655527617 -4.149318906201174 -0.6345817526338724 1.9958896512331927 1.2050040781902185 -0.38402427227934943 -4.294420140078708 3.2539739925535187 3.327440956440615 -37.924244566119285
-4.49151567322987 -2.076854693742196 1.4914044834639926 1.0541281700773828 0.34707663066727346 3.364920746892807 -3.469355791762232 -0.7842869527484906 -1.757959478674115 -0.6583613139522608 4.327499061633992 1.1640230350212155 -4.10796431222792 -3.2861663327679134 -2.1041163554558864 -1.3240522864703532 -3.8260471824013798 1.1858419816744927 -0.30136866246847216 4.876051044165973 -17.329758607219425
-4.46979670667004 3.8830929888009376 -3.8712716225375376 2.4048376113576486 4.059449197510045 0.9154204278875575 -2.596977185154208 1.8234774153390134 2.6193384882131614 -0.9367107282378946 2.445307715247175 0.7810983426377511 -3.863726266289177 4.9156185775753585 1.1429443553223546 0.8541245482674631 2.159595709265308 -2.933394201276045 3.5596776684800755 -4.967334887002519 -43.74382550211694
-2.3852713915119295 -4.152934460390734 0.45190606847547876 -2.0253831704938396 -3.8383250983950044 1.111579342829061 3.3448529369385565 3.6313098405308715 4.223430725868543 -3.7437032530092407 4.621190932742161 4.056739938343691 2.98197435188177 3.5165155679298046 0.8050388811725595 -1.1808159995578462 -2.2039659067885586 -1.4608772523388982 1.2721882453022468 0.18983373655749247 -47.35548273074139
1.5219968164995663 -1.4574282501903757 3.370566062784974 -4.08648555949647 4.1935127072877485 -3.892714884196695 0.8697999238443552 -2.2473990582056813 1.34318843790391 -1.5091316202983505 0.4504403973533009 2.721903333522947 -0.07700601433780463 -2.5669679384128985 -2.4860120530222565 1.5117381264876943 -0.17689308926754244 -1.90743137231589 4.087868688831623 -2.010653344327177 -82.77558334510246
1.4795807913337242 1.963421119333474 -0.028093037245630725 -4.106461261722645 2.1570503652080477 3.9844606920632177 2.422005137023749 3.709377523685278 -0.20326279813709647 -4.22681065618006 -4.692935329802678 0.733269726867193 2.6137411118874336 4.399169229316678 1.3168089181266787 -0.26461843925262407 1.0329161631962878 4.721198646406693 -4.805120005084169 3.71524520160051 31.528225573619633
-1.9819191672333778 3.3782121313380973 -1.7727888012901314 -3.7651597356135778 3.2121624512491422 -1.2278137080888687 1.480356362245324 -0.844815898219152 -3.4297366666835325 -2.4697247348648412 -3.8865744791803856 1.2385444441754236 -2.351054023489775 -3.9100508656700295 -0.3369493618140922 3.474944092382451 -3.6901576590092757 2.9495876235652476 -3.688669363091348 -2.7699024606412745 -51.17448438973783
0.5904974164398435 -2.985330675456069 -2.6350348587108186 4.372749626083442 1.5468434897181202 1.719159393801295 0.7065368429868251 1.5373297305573033 -1.2972118387768106 -0.6157790279551465 -4.247051737652729 2.8244347535622447 1.8811018524913061 -0.3898413115872277 -1.78500027893443 1.0699132713333626 2.8831265255907166 -1.4408677680820778 4.461346259171691 -0.7186842385709298 25.625664675682355
-4.752150319001615 4.283357007150869 -1.9466304179360794 1.0655109174010713 -4.330530231607229 4.012520771226056 0.35936640306681156 -0.2838093497911842 -1.5972736910465812 2.948766304551218 -0.63974463725134 0.005276606931649219 3.5779030362605493 4.537630301173005 3.041448062687751 -4.567989805421177 -2.0336438031354875 2.729250802680058 -1.1550069151973155 -2.550394721404291 36.01039271158899
-1.3777055693681408 -4.972651328702673 1.0277148140027892 4.606445214084587 -1.5007550109063637 -2.2590989885576085 -4.126263872149067 -1.6079743017976766 -1.3963312704481377 1.5692058896133325 1.2536052553380737 -4.126083826912335 1.480481183459215 0.8346278935937761 3.3989926700184157 -4.5220433061241385 -0.670236623020541 0.9450216157247908 3.54569788580368 1.6359435044358408 30.455623743122757
-0.011779318068491307 -1.9199060020293555 -4.7896662974670745 -0.5149409487928871 -2.341409185784901 3.749144788454503 2.832838754106998 1.0321912064964387 4.36625145913516 -2.4889083820854427 3.971673736381831 3.6258024419284123 -3.891877629580268 -4.274199796839113 -1.9259110066356167 -3.193504779152352 -2.459669182730843 4.17044479311641 3.6090695775532247 2.405771497998378 -28.635746816813107
4.0674492075990205 3.1265260580803833 -0.8878841535569029 -3.6839638799110386 -4.254518173624408 2.5644156018422297 -4.1057291550856565 1.9931195503282604 0.1588324106531882 -2.2024782624946138 4.625458563264626 -3.942485372699439 0.7649629105384994 4.3760171054982475 1.9574563414907775 4.84531934473871 3.620724114212962 4.510882434775095 2.5164985307036893 4.835200815680311 37.170625883020094
-1.6741011289901042 -3.39340089051803 -3.3085157603895334 2.6804506703868345 -1.7106410583974183 1.702664214724189 -3.462424196528502 -3.1618776614398456 -4.001508721972193 0.4203081198496337 1.6566626846197838 4.173374251913607 -2.4169441280298454 3.068361470978674 -0.6340824803979004 1.5949659180073805 -1.0392617490654974 0.5120232333699537 2.263874098727408 -4.581589858406172 18.75987108425107
-2.177584544403015 -4.806766147850146 -1.7061769017262018 -2.2856006674556406 -4.0640539967981 4.071408245352741 0.45134322189865905 -2.6794595970372717 4.678382958314328 -4.569076211669859 -0.3269982140895351 -0.338132411584362 1.890322963185243 -0.048564216713749 1.317693752848502 -0.4844106235252461 4.1160176311635155 -2.5980250627495027 -4.785761128544122 2.5261728507900543 65.92681515604387
-0.03986140845661712 -4.805921230549892 -2.5235815647126856 -3.2236684511925064 -2.1912235441194006 -2.5491772531163748 -2.26181504959761 -3.7403258291360864 4.475045240482265 -0.4036780113138345 -2.1633252550672766 -0.7560276867867373 -0.4335492881072316 0.48229796923095947 1.0686703155255337 -4.59580627370586 2.8680032640694417 0.8248112406234656 -4.046822458819128 -1.7042945984166034 43.01622008046107
-2.492044265307851 3.7382155302348767 -2.1055467470262466 1.8582616842916853 3.119852223494007 0.5928509489272926 -0.762119760345854 -3.183056212049075 4.343526243899113 -2.415804509660412 -3.228518211660357 4.169832355840596 -3.9631189080980844 -3.997574097522254 -1.1854797179011722 1.5051503064062484 -0.35010919681906216 1.769059938540023 4.461180229513271 3.2397035006759474 -37.36602213722873
2.0430420911434233 3.5350966408468256 -4.458437225157354 1.5593509809220327 -2.4487792343063552 -3.9442984874907028 -2.6595198841607184 -1.5032743354704703 -2.4316488478562692 1.710513301883232 2.4375994401193637 2.653187658140393 -3.068580390451995 2.2950760130875825 -4.304321013339052 4.27671954288965 3.7535306514647147 -0.11715100502721931 -3.8264887318565313 4.993346327100474 52.23257136433637
1.0610032857693055 -1.9032294288276894 0.7901245797973999 -2.2974049992505674 4.916934551236187 -3.090495052570623 -0.6066173321066204 3.9076314347566505 -4.551982130053693 1.965539810666865 -3.788518326696254 0.8372931691673973 0.944203317239972 -1.3522192206480743 2.015844324988951 -1.7561568545493014 -4.22488001598974 2.2326109306549995 0.5589406367423049 -0.5721801851124138 -61.27554362036636
-0.6604335037162476 -1.1724393396566724 -3.764954745294621 1.5415514734057005 -2.7646204706671353 -1.6738736678858013 3.0216094058650604 -1.967233488673358 -2.2375630721865436 1.9514484024606569 -1.1998529566261928 -1.1754920099583686 -4.0492299764527075 -3.4385992918451223 2.2454768046931832 -4.834943199887447 3.6411821248750798 -0.9555242370415815 -2.0932630127330922 2.4504609590816697 51.479573717442925
-4.273298810959992 -4.825908765727512 -1.1633339566234047 -4.293559028286652 -3.574957935180877 1.5756619396034903 4.271577138565146 -3.2965448207132297 2.255283128235197 3.4712600809616685 -0.15316290624716178 -3.9659487745825928 4.5554641162386 -2.1400253677068557 0.7853458126899069 -3.5951572036069033 3.3784488300946762 -1.5736338457246046 -1.4622627487122553 -1.2350392449427137 32.44287799733109
-2.781560694795624 0.8170927176330718 3.70286333154573 -4.334119932474509 -1.3186971926286106 -2.6797631984616954 4.599437824582079 1.1359041518310642 -4.382938048585599 0.540079767034821 -3.4901442653231065 4.56962094266064 -1.820986356593648 4.668731056630129 -3.9630123639394634 -2.393335923394461 2.7311039082108373 -4.353721436548695 2.710805962188049 3.2282235091121443 3.1758955301809264
-3.5167784489735743 0.7403128014897495 3.673471625737905 2.4208400287143874 1.5691848379242535 1.930149065333814 -4.675692301563975 -2.0071170152903917 3.0161839949577907 0.5570940486251175 2.6282914470214838 -1.0748304660222074 -3.168472506382405 -1.3448375946903477 4.10381748173042 -1.5344473158752736 -0.9313332083753076 2.160391895781303 -4.077769297937236 2.5955768602466236 -21.360536232597585
2.4526812969137914 -4.5166737802947265 -3.325166993824775 1.0037230043527199 2.417377130885777 -3.513637104285218 -3.128601259566749 -0.5936343680096376 -3.739756036385221 -2.056362829016879 -4.679132868943037 0.3180294129092669 -1.7903103173012735 3.8506554790069796 2.8406081726282126 -4.1498040984176505 -4.817322412813722 3.690434375660729 4.1375980765513845 0.8321479671335554 17.477257729443785
-2.2053041480794597 0.1226916929339108 1.4418737308424205 0.5102358427790161 -2.2340450577897775 -1.072816936703199 -4.00508061606713 2.594674203400203 -2.5678651932262175 -2.9248107005902426 -3.9967582087100606 2.680987183616141 1.2147007014562137 -2.226211876027353 -0.7535136044646418 3.923218177626282 1.2299108261151037 -3.5316280410148693 -4.424751174077784 -0.39951313013190326 6.49185252911567
-4.417332992786642 -1.2776725137016398 -4.49784811006489 3.7709635709768765 3.327686409060009 4.897489172184324 1.1239069756078877 2.8761984789519026 0.721649204570757 -2.6739110851587333 -0.615681692516814 0.67138195281471 -3.091311056577395 -1.5112148271653316 -0.4484442283819048 0.3256618301221792 3.7793230976084065 -3.692492392337048 1.1085805401760478 1.0339018077627307 9.992270613145728
3.876285778101126 3.2031391574571533 0.07207711256424698 3.41845611682942 1.0556228203413918 3.619114379417317 2.4244556054221524 3.3342009179751866 4.416442544365955 -0.14480518511840046 2.6946029627949617 1.7731178536595422 -4.1443370154335435 0.9032208511009321 -1.2293973600271846 1.422520405413536 -0.49403171022748893 -4.875245427944543 -4.107731530816543 0.6032416508388936 -15.119565253289045
1.539942133873656 -3.8266375341288326 3.1922756873126215 -0.5673611572280324 3.926115967340074 0.8969324907094052 -0.7637615379758325 0.0058423650995482745 3.6494503771097815 -2.583751197760561 2.3317377588491333 -1.3262517714909015 1.095537971524923 -2.583886717137304 -1.5350035110099092 3.0621902025205596 3.061668483461032 -2.788921295234117 -3.5725705470676905 1.0521767603614443 -18.88599161068222
0.552089314192699 2.99888349723172 -1.5386675135200711 -2.379944423632235 2.4035471424797636 3.670796802000682 -3.958408536658724 4.077756579840319 -3.8035633207135975 -1.1832514846206088 -3.851846571333991 -0.3435668264230962 0.6315733209168979 -2.1023613410559494 0.5537380289764187 0.4229355413142759 3.3617621433397797 -4.816752433654878 3.7009169594373112 1.592713414067238 10.78694679114355
3.9556189991467683 4.079002506677774 2.724244927806202 -3.0881403748342287 -3.4960741138012663 -4.347814352402731 -3.94829825325953 4.7191862001093625 -4.567938838749478 3.7400270643959885 1.9347982872252043 3.5063545267495897 2.9308882669567424 1.8591295536702948 0.14448530281819139 1.2720121290339348 -3.060792023318596 -2.087510843191509 -0.5142541271175194 -4.970129425091578 -59.24002374808491
1.1718308810978666 -4.02748371284906 1.704120682185093 2.268296222753497 -2.0546127635412037 4.618455810337949 3.7758651335985576 -1.0226319940388642 -2.42024422420413 0.45597949939245375 2.138275720796063 1.8429801215046666 -0.03520590484926789 -2.4410564309670466 4.779660953820246 3.312809848807097 0.451582853942325 0.4393991354190767 -3.944209675729262 4.6221688245731425 13.666426715514591
1.0092623291323495 0.42282345819937195 -3.27262126039092 -4.753306743796419 2.841258474977037 1.479191660235463 0.5307326148788061 3.9134893243650453 -1.105614828642004 -1.9320040469206088 -1.6998077207270121 -1.8098673054002035 0.8786174495923333 1.9229913502088767 -1.0929740115945186 -3.369312436085048 3.3729110899232833 -3.1018353316930014 0.10939706264801252 -0.7915039521581013 19.373871410784947
0.32687475146168943 3.6531909026274807 -1.249848023790976 1.1328578714807787 0.1854282240143572 0.6582854982302226 -1.4701197429878499 -1.0374851245816306 -2.798575363444775 3.073220162788301 0.3523957748071327 -2.620954523215442 2.2368615985421947 3.485402996562364 -0.3645316427132492 -1.3990048223148444 3.235466272654243 -3.3542008659473357 -2.4332302266064443 1.691758774649868 63.25741836075358
3.145399480537394 1.813382633081769 -1.9373845511358456 1.3391162369120257 2.076424110470148 -3.043409067590488 2.5402330048185684 -0.7655935168783206 -2.491784938137812 -3.49969939199527 -1.3124346101902384 -1.0162800655498962 -1.1194546025248164 -3.0559382576346272 4.940408091109848 1.5819617354371704 -1.2249541134843822 0.42724710564799295 -1.9424380759024595 2.7516997755120896 -13.935020841174588
-4.188422931254438 -3.735069971357442 -2.3654263216479423 -1.4193690044095177 4.918216601332608 2.4431415136997625 3.190586110079952 -2.303871468279092 0.6151115396979829 -1.6927403302722088 -3.0916404936795727 -0.36359168307540823 -0.9476008684664219 -3.627695698876244 2.5015485898214163 -1.9689873841860859 -0.18485285768804705 0.7637609333208486 -3.6397743154677586 1.6951714146089714 -7.148912824144422
-3.4518615587310855 -3.8388877320879544 -0.995123597120716 2.7402749397186668 2.4653133200937463 -2.113504989062034 -1.2431515514185887 -2.1655189516926687 -3.446727113749569 -3.966299293380721 1.16384680818806 0.7748025764493773 -1.726036835046684 4.655787977667188 -3.6084560411130906 -3.167974671392071 -0.20956273243961832 1.4675953906417325 -4.43790442198422 1.5652683805760166 50.25424066828003
0.3395905707241731 -3.128796369332435 0.5647499243375815 1.7791613394041619 1.7876622892699991 1.1815763827359236 -1.3930694634081742 1.8801896521459405 -4.131453273136967 1.494922500792243 3.6417729173139968 4.228092565099171 -2.7231759289043103 -3.7576245619345583 -3.4935955520066617 2.493274155038704 -3.780744495097795 -0.09160313449517421 1.8165496724164107 -3.354615941678365 -63.85293435563006
-4.058246956478943 -1.1626714709274255 2.438996012354149 -1.54774649234073 2.992599672527553 2.6918549753406618 0.12870165788505883 3.045462894592495 -1.4288706482988536 -0.2897531680645056 2.4750972966103095 -2.617232786706528 4.292945283874765 -4.630605287377772 -0.672631937816389 -2.1448173943238666 1.3692680256167469 2.240328653750156 1.5541776394247364 0.8693115656693253 -36.70530991054768
0.5945054271873076 -4.400550956142308 2.735779295926788 -3.222039256348803 -3.2021946820125735 0.8438655005484605 -1.9976504853822519 -0.2853741211200136 3.320398885813594 0.28413704046965904 1.6340016764085874 4.582946495222476 -4.593909140169706 -1.057822163522676 2.94921679502146 2.345973875218829 -1.2389395499505005 1.6039943371043055 -4.816469922971571 4.105449159912064 -33.01464785161103
0.17681814042175326 3.295286155903428 -3.0856715318001604 2.776924098719845 -4.351377806160367 -2.4429551841182895 0.23537655742188157 -3.7096276388487173 -0.7968647071202177 4.677967244617303 -4.4692926940346025 4.882982648585477 1.3662232631546454 3.3685153016447877 1.3560815204185097 4.094803282596329 0.9044775171090924 -0.9585318014017821 4.501715035428909 2.1260690515060032 25.304848920105833
2.7612447785231753 -3.7248235685509745 -3.0627224518262786 -3.0054837677359956 0.32117311001992466 0.04034244489385408 4.501685249996136 2.214906345611621 -4.45436905069953 -3.382454571181536 -4.163395317207006 -0.13699640367681276 0.7661538958428684 2.376747844650012 1.23711810599307 4.263419856293545 2.8014918097464996 -0.98036621819511 0.22890776473975105 4.097642150650639 38.472835460958194
2.3121602586814127 2.8298375128797373 -3.046285003567167 -2.800130707141534 -2.1713598180391793 -4.782399414977715 -0.7567225969368838 3.7705258445383567 -1.7306038555232197 -1.2777586864431845 -2.032230857968973 -4.670873309535807 2.70094047120513 2.9850625527021304 0.7063266973789508 -3.23163211271019 -4.297896134220984 0.03669849741517872 1.306685665809649 0.6680000592245481 8.609110949755454
-1.7037116283591525 -2.672951580035857 -1.2773976603122374 3.27825538236784 -2.106210077291426 2.1669142616356964 1.4951014811534478 -0.5013743949447633 -2.9626599844011103 -1.4914695585227458 -0.018993276797869996 -1.113401526375275 3.535484330533178 0.3685096590427257 1.5846537024092209 -1.9574785313250453 2.1718957711478417 0.7886670039401338 4.971618327855412 3.5406538231789746 50.30309209074798
-4.401359872941184 -4.635878625358191 -1.7190163638505327 -0.11878299633401124 0.1706593852618541 -2.0144139113923587 3.676889483568523 1.4069508636017147 -2.1430650737475387 -0.35986308708522863 1.4212492323117667 -0.43668640190147023 -2.024848806146969 2.936954266396259 2.1704461883048696 1.689323261602392 3.8300810354901564 0.10954223155755027 -2.5016718288539286 -4.486439182441593 -13.703401035050586
-1.267971076686182 -2.0189944951678687 -3.1051085004394965 -4.894423620920481 -2.7211793322328024 -4.10895620429942 0.8142287487184117 -2.273436818558725 -3.9964848783808202 0.20254757731988793 -1.5918449621589117 4.631144782002579 1.7147329351524778 1.3946528986824873 4.143606118685504 -4.215920382161771 -4.114801825636153 1.451866408970064 4.26028030023736 -3.510359390254071 -38.45781351115527
-3.326736646744919 -1.433150726922289 2.168659245155542 4.929257147724799 1.5900536072833207 -2.271833748528503 -3.2114923445781396 -1.6733639135429956 -0.027456807926653504 4.2885499868676575 -2.8220074481680903 1.2754912293368417 4.316916576548627 4.157286804354342 3.4024006632143973 2.019075676437362 -2.8761629814715906 -4.35402357846117 4.099734683010169 -3.5934959012942946 -35.441256183034426
0.9120947544322364 -4.348240688549731 -4.445194753596146 3.3546487755061527 -4.484522182366656 -0.5739342374873546 1.1706824353976986 -4.372580862907183 4.500072832654453 0.2982406396111994 1.0306807486679936 -0.6587382169805744 1.4862072557175674 1.0202528426883504 -0.9128156158206835 0.563754153764835 4.193635610239296 4.013187786846514 0.6869228780639585 -4.5257086906050015 54.827873934387725
-1.3603908171608712 -0.4055948546060737 -1.6572707914469875 -2.9307015994319285 3.9500275866289947 -3.7933903801281312 3.1076678229657606 4.2215045816673005 3.8408250815322447 -3.726610577012297 2.3465507540335935 1.285132156384269 0.06861904968330634 0.745540009955743 -3.4313721216096194 -4.382728722080889 1.5948264702362547 -1.8507079435936271 -2.7729333703292367 0.6419599575330466 -44.70171323620174
-2.652221534337371 3.6851553308083105 -0.0980437837936945 4.621641408130644 1.4198575033270053 2.6886697475648518 4.387295969643883 -2.0517811250946028 -3.4106520970722043 1.8527374232971727 -2.456790917237912 2.6814997211511447 0.6430611713322403 0.5095889811534065 2.357987654766376 0.481913138502879 1.6557244471938564 -2.678012358075218 3.818354451183371 -4.74113395266053 -9.403951245652632
0.7693006704912335 -1.9365699333682174 0.9731309980112544 3.2332050428404475 -4.744227677801508 -2.7200672096211798 -0.10837353092144308 1.0601482876004331 -3.628379819690993 -2.6268275956205542 2.7794908390779547 2.4857653945832725 -0.5077510022242882 1.8002973845401646 1.630121877478694 2.7637081799082255 4.94515412648153 -0.24171463316278174 -3.9293564045488893 0.8087640931731404 34.800235286231754
-3.8667634644245172 0.8072132668967313 4.720932434815552 -3.1427292907422655 -1.0442937417389961 -0.9915578527162179 -3.496638759337488 -0.6017501162182226 -2.14267647405134 -1.7700598650914499 3.6105157363178684 2.5660801335528847 3.834782576489289 -0.8346386407311233 3.5011908772917995 -4.764466862970938 -4.30834975219068 -0.8193727014003747 -3.1635476755630787 2.9452982549049276 -44.436874528330115
-1.634653618685494 -4.549720901981229 -2.7470390167818595 -4.920306873920316 -4.787548527793433 -1.3243216248373688 4.004679730420257 3.3909999038671454 4.786089662804088 3.7054112077190844 -0.6338128752492134 -3.7018617482420515 -2.149530422053252 0.82702180839902 3.001733322262659 1.8884422141286619 4.663014512613323 4.359644269378533 2.1935997331838806 2.596743392259768 -8.904190914243028
3.056388453910138 1.3997476787585041 1.063563493649161 -3.515148777623842 -1.0921593347580796 -0.4223533916271922 -2.82446600508538 1.7262696249812182 -2.213689760436226 -1.3648310642788122 1.4179550017564688 -2.4462986274810214 -0.24198943030280873 -2.2947637501816365 -3.3340838772445744 -3.6477775819172296 0.4774261548370511 -3.596912941442424 3.058563238616257 0.5007558801511616 8.697170444236615
1.3213553048778053 -3.2517691365548163 -3.910842649332882 4.978890536437387 3.0530111495115726 -2.199470466189064 2.8699910636529635 0.04223686034267793 2.0190770964858196 0.4105100649208051 3.461016708444994 -3.193661726512742 -2.585753959888489 -2.840299630698264 -2.241544519179166 1.7985258977455318 2.563919676131988 -2.5455628830825794 3.702116096037347 -2.66654155134717 -19.731295937538235
4.571429450694669 -4.100206265862996 3.1621968732793935 -0.7580752684953627 0.8082162973489027 4.03026374135764 -3.6596213942584868 -4.79521423986777 -4.6572755269810155 -1.3402778710337215 -4.938328845597449 4.6255377987092 -1.4403375542689592 1.753345154097885 4.187102576330762 -2.8335213787051505 2.369545424022185 -2.6033873821805207 -0.542205782753582 -2.142844686719736 57.53491714884
-0.4205160521435083 3.0171197157367757 -0.7919738024641179 1.4947245554555444 0.2784654380388121 0.3778832688640046 1.7934383301986614 -3.8270472744933146 -0.5324524157121813 0.16761497595253694 1.4203755608249402 4.186872913205828 -4.796037301397616 -0.36191102551798515 0.6647015841512429 -0.34487919707523673 -3.370887067330337 -3.4463321468309993 -0.5734990385400804 3.900332799997976 -17.50819367308603
-1.391621852758246 -3.8345546760347182 -4.19686858912223 4.330779249185872 2.2547617298605473 4.828165963073836 1.2170226890035725 -2.220129727809874 -1.633415862933496 3.9899442822150455 1.5046942433732795 4.4153236325027425 -1.6885283415944286 0.5899829642617345 -2.546303439330285 0.4571666161406771 4.549245427846797 2.280393347186487 -1.894930175766767 -0.7568501801857419 43.12002272602694
1.082702523270993 0.4074094526490377 4.221128687549083 -4.2131182152845925 -3.355758499657109 0.1239036359957515 1.0929925684725816 -3.270689950046981 4.9169033999954195 0.7302355920628498 -4.091701063091948 -4.564971449001169 -4.717529913771344 -2.658215343922042 2.2131339719633525 2.921834189838761 -4.085659830101587 2.2013002106634803 0.0014024941211330244 -1.5405757891610983 -31.917077023816198
-3.345102850178007 -3.746888594061075 -2.228942899141475 -2.0212860835699575 2.961218355802215 -1.262312371639791 -4.639253765542772 -4.015883134370636 3.6085291351157807 -4.679584846719342 -3.4271199650264617 4.294011816968144 -2.9914120178194836 2.168719958648415 -1.8678465499338892 -0.9819504320415628 -0.6453687109660367 -0.5060254477338066 -2.096234504962058 0.10933060195698197 3.861653128241853
-0.48614838370343705 3.73438921980733 -4.603974077029651 0.4774131386454128 4.293672783421098 3.886131351299877 2.191133296273179 -4.323604680847887 -1.1506203875248309 -4.871310026455546 -3.05611069453116 -2.364172149588083 1.21389455543902 -0.2811027646049249 -3.5460771546391614 -3.2302491367327537 -2.128357155319325 -1.9165269438218067 1.3190466980050992 1.0599412245391555 54.04318517692057
-2.561276811564949 4.802365434307109 -4.909297629613075 -3.1950552261138307 -2.471507696051789 1.9069461993590426 -3.542411315119204 3.976121630645009 4.786121894254963 3.831066055037562 1.7829515115151118 1.5188436605713909 2.1541757609003165 -3.6098227210776646 -1.100849450594923 -3.746539362147938 -3.3413808218774923 -1.992814865008393 1.4818499584736413 -1.8265796193060355 -54.207903956249616
3.650801712531072 2.462770932453858 -1.3731774297419177 1.310410984860484 1.439057374686783 -0.5306198557972941 3.606253252938629 -0.08125816435656574 -3.383000795072919 -3.6924216960949687 -0.25546847424219177 4.362948405811789 -2.915965368471889 -3.1417554714703333 3.9071932739532773 -0.34041045240872947 2.4586154153090387 -3.18448984303335 -3.52656158121585 2.7999362841189797 -1.990798166762172
-1.3854620300070386 3.027721007184873 -1.332835379119329 3.8913961462762163 -2.4427562795764555 0.42737366576535063 -0.027946199175342912 -4.953931193340758 -1.659476055487624 -2.661049476734809 4.505148690883946 4.048191676615275 0.44747542504804727 0.8170863157265673 0.6140745729328847 -0.9972422412786912 3.7636452594611196 -3.7347817562209586 -0.6265585464598598 1.009720865808693 37.131863550941404
-1.0996316885718627 -1.64422979486613 0.8700804464672585 -2.180339228231123 -3.896660886734863 0.2991250715432532 3.1219586417516805 -2.424942405410584 1.0402124201383103 2.94370704006516 3.6430838775266388 1.3653959925131423 -0.15125556298975162 4.393564690427869 -0.9024896943784437 -4.301182131628087 3.9539627823031775 -1.188771740197887 1.6282425175299817 -1.6216462525964062 21.49614412990001
1.0566130376086207 4.069131769811781 -3.39596251821515 4.595127319786659 4.249753557676664 -2.118078068979944 2.2770793281694024 -1.2335187571688144 -3.389994573093503 -2.747594748251628 2.6064790335146277 3.972525255244525 3.3811928873570913 4.789005498938861 3.3264003284927917 0.7827127064194004 -1.85930740531267 3.7176282893391672 -2.059985205338881 -4.325659008732469 -26.093680652428148
-2.696552460874809 -0.3022602223365318 -0.28304527192015705 2.3808725419608168 2.043874361156794 3.437044930942829 -0.34929760653688113 2.223167634978016 -2.6588846235006 3.3185415745689983 2.201059732994435 -2.3202015471349813 3.71840046085447 2.380536633316974 -2.125722254737896 4.223259783261341 2.4415715307523342 -3.1737976633286147 0.9097592894689264 -2.047467470559803 6.324712175466453
-1.6948233457409922 1.684626895822655 4.954120499755593 2.3481633499790044 -2.82959389835249 3.524875767981751 -4.574758601283477 -3.5636579320134776 -0.2541775022499584 3.696890183104699 -3.833090712699636 -2.895934712341155 2.975035698269446 -4.5690525021323865 -1.6277073238962982 -2.1875257974361615 -3.6252833366480965 3.0056723879583025 -0.04601833263796262 4.2465435359736805 44.03188546649368
2.2547278444358243 -2.948038656260872 -3.0388090973965354 2.153638103737423 -2.5526759278722757 -2.9117441914226516 -2.013705269511056 2.99999456830583 -1.840212602564193 -4.1354433257239185 3.1871246406663474 2.46925972806352 4.981923184556329 -1.055425842734735 -3.1174267989122506 1.8117278612267267 1.3135800418124441 -0.8142705882476164 -4.534185073627626 -0.7288164288221157 22.563899969424035
-4.569458139307411 -0.05722398021706265 -1.6610510003022725 -3.1933008718866307 -2.313729866142019 1.5688044815554658 0.9454632234976597 2.7118873365583145 1.3713774258854885 4.6084392177362705 -0.8459306573729588 -4.807769426122449 -2.23176280776146 -1.9653637232049768 4.029157497079597 -0.1588763767775978 4.931756186347599 -4.327191468101049 4.506691684636859 -4.769956067214629 -28.761670269504926
2.6268375108979782 0.06896927667536801 -4.49975950705414 2.7501807108707244 4.590049723555543 3.272314672064944 -1.140596923469499 0.45961953635182873 1.965792722313422 -4.254930285201292 -0.753829827765033 2.1756885653432043 -2.3488971525011304 4.559629334979711 -4.598391871804627 -0.3929989771566653 -1.9038762650240892 -1.4347606288926338 4.294665515068139 -4.041725275824174 8.974937688548296
-4.1815673873992365 0.25558262667459 -0.7195774736624196 2.735034253233227 -1.2395854765805758 -1.9772117940496514 -2.274012137138519 0.024518793386035576 -3.5343565577009386 2.8107665705566154 -1.5740052868634349 -0.6895441018951338 2.3672175343626947 -4.285711894074361 -0.5690253986302629 3.4353692454174194 -1.694092152536526 4.621785204263354 2.0670654933552193 -3.627681086387693 -29.55359640501399
2.139190692213119 3.7904760015287344 -2.1263615294192197 -4.681082587760622 2.140314187034619 1.2539707972521317 4.118908587435612 3.5363292636054293 -3.302122192535281 -3.877990418253421 -2.6310159818267866 3.0523119940211387 0.5509181733018753 0.6680555636273846 -4.96114963497197 3.386286833258266 4.2709848882907835 1.8470324182419882 -1.074949241197194 -1.994037963556996 1.0315218567032343
0.2269838204836354 -1.9226853061056817 3.316474368193049 -4.336569399874078 0.24493577754874796 1.777475605117326 -0.7005989801273937 1.4316947490570797 -3.412530970082387 -0.7367186513741943 0.6108618709646416 -2.767695483686581 -0.15174394779336176 4.223421681862174 -4.382925599247402 1.1288327044683726 4.023149953856425 1.2994907727941039 -2.999045381093021 3.6134447897623563 53.7336820395829
4.720906807500839 -1.9372071634460708 -0.030673214286646378 -3.8379599801056976 4.816578796263654 4.738108766551614 -3.740040583481391 -4.116853723416877 3.5380094806797793 -1.2401632785609729 0.9663234195540928 3.5152262226540127 -2.7948643162123457 -2.101723861309285 0.027131351622258215 -1.2286836646932144 -3.653478883069531 0.3556651020082988 -2.464288207390285 0.28220830854674084 -25.243043240106367
-1.8867098157876128 -3.934342006369529 -4.736713732687465 4.782325119465646 3.278162068305617 3.4609861946942093 1.7726876019654005 1.92299860572275 1.432075804611066 -1.2392869880513304 -1.381856451405513 3.916347937272569 -0.36752866468236434 0.7476460322129626 -3.3182602526582663 -2.398417835686585 -1.543814191646129 -2.7220654311211625 1.353927668186028 -2.7197993523533293 2.080015527492338
3.565219947597761 0.6886386838461238 4.497807983794415 0.09597444311460102 4.022139909289985 -4.386266648800454 2.5375966508077132 2.6630180519638813 -4.500165455148934 4.6828924358944715 2.7247007424672853 -3.5417658372127727 2.753569576807937 4.355759314822711 4.732147446479619 -3.5122798011517764 -3.154646545507569 1.9927938406110428 -4.5059807450355915 -2.283004296288087 -42.59297780366483
3.068351953926099 2.199360843583287 4.607913865977585 -1.1100866532334552 2.8061506263046168 -1.461219266329782 1.246132836174496 -4.880310642456315 -0.3566668712516199 4.89146088429937 -2.1259802188475065 0.412858570434973 -1.6397264641310958 -1.1868791423562897 1.6878914317413258 -2.002044854942684 1.5815242375479022 -4.673644986353667 -2.524824025394171 3.8114250557807026 2.2880759099665102
3.572924245887604 1.3329313307469848 -4.835238904720383 4.509541597451859 3.270684017914121 0.7180915245226274 -3.7957811536422037 1.0227807534962485 4.187566842023312 2.5991846189589243 1.4218699368741312 -3.8220831516995513 1.6793569766931915 4.131548482002836 -3.7595177413148892 -4.524846357149972 2.0011838561953894 2.6604055620919285 1.4722346201948877 -1.4804003889655082 53.461251263673276
4.187901090444985 0.2128814425184693 -1.1252165994772545 0.25235439950080707 -0.40565664278359304 4.197156770374926 -3.8653796715394915 3.076896453423604 -2.0181878979841237 -4.032171745626324 -0.5715330507884477 -0.5985104920851629 -2.584184831592328 4.8929656697130515 -3.733689054210462 -0.22486127943278866 -2.5116302760781952 0.8756831044732358 0.5205981308118366 0.4921714136036375 52.88592159049074
-4.097023330728983 -1.1212548984401516 -2.59102095949899 -4.582624016100372 4.688796511897792 -4.683677576474221 0.20768769391484643 -1.2855131369075612 1.8273640946066418 0.08838611399224572 0.17563214352430734 3.767928764380338 -3.124815796280498 2.401386437702186 -0.8519105606947539 1.8510797929057086 2.162202376715677 1.7745971384783266 0.09330495282706153 4.374613762737621 -52.041328971937375
2.0271887396964186 0.017288610370862045 4.219489119228861 -2.961149969608974 -3.5850835448084037 0.8145893874671337 4.714887910459561 2.610460090785848 1.557050135024224 -2.666044846533283 1.2951592886783692 -4.92833553916654 0.3285267406096928 3.8282624953326305 -2.6130101857161057 3.2716141568949073 -3.6897033750948385 -2.3783933402264767 -1.9379552582711979 -0.16155459687028362 -3.0708705314710576
3.480305312761857 -2.496821225785828 1.0503147111356057 1.545618093428426 3.1488478143762837 -3.420601880004389 2.692212311056262 -2.978375271830178 1.5180272976009759 -0.4160856892721725 -1.0605317883360854 0.7586404386673689 3.3197279986210972 -0.2210690503193522 -2.619611649584482 -1.3948394599940652 -4.655216608431788 0.47912180274006655 -4.282001625555322 1.7858766333399974 -2.771112280552324
-3.032344998070864 1.2360576734822226 3.205695660494449 2.3626977023109834 -0.6925568902053936 3.9482835948387205 -4.734018915680673 -1.610829220038731 0.7576655480741739 0.193069563890802 3.9293595691422993 -1.6949206148656772 -4.77176036057285 0.8960314881389921 2.6440259568248203 -4.0813009110002865 0.2545820865014692 0.46957945427567704 -2.148697201988016 -3.337794937847808 4.4473106112099945
-0.641119914470365 3.9034766290766107 -1.0374466775633495 3.030525750774636 2.387333623063509 4.688617640186521 4.3089661489426625 -2.684867528484527 -4.242327191576796 0.15051490929989164 3.156234557314278 2.841675853391309 3.9687879338611403 1.606458867164159 -1.6287454908347687 1.4423118479263861 3.1532517319792035 -1.4847420324012264 -0.5401937472128848 -2.7947741231626253 20.465182763737854
1.0644708810480807 0.01924497792872426 3.211755058299474 2.6974756628413346 -1.6506277988990128 1.3671868065553285 3.675556939949322 -2.6676751041057676 -1.5780801122449373 3.050294723452648 -4.115728281590128 -1.1220024367522408 -1.4395094016070442 -3.676597844904558 0.46847115301231756 -1.8126940745866116 0.5780338046763278 -1.7217636793785775 -1.3712070485149521 -0.08930895813435669 31.39580864272869
0.1348618715285621 3.0241060699759394 4.7084362142566505 -4.497752008869425 0.6759068926405121 2.612351942394497 4.724173212269511 1.2667502286655976 -3.8916722605892415 0.8995838595025614 -3.5072574455615824 -1.619423660673557 1.3248823400356544 0.5980920203428761 1.4701670569887497 -4.705227803320687 -4.89783069079639 2.742289429510482 3.657476820114029 3.9320629253345256 -19.020586755797105
4.372196089701012 -1.8302835250175353 -0.8587924248921475 -4.912547730651646 -2.2258222349218015 -0.8875201283002792 -1.9468466168202259 4.855717780648893 0.4092817784727023 -4.162156751038114 -2.198241624189874 2.6087600128681876 2.2242776633674115 -0.6189865739273568 -4.712336348182971 -1.0953899417471344 -1.0792564232111115 -3.528748994650636 0.9810964074472253 0.34048798617382303 1.0347357735193552
-1.1060551639181382 2.30418551567605 1.2518769397659373 -0.6097998713873931 -4.900744442431511 3.7034421246533054 4.821186705316482 -1.3332635053270545 -1.7860526297808166 2.0351941282963883 0.5728695242657933 -4.698255242181402 0.27658834068843774 -3.5386621658857367 -4.008835803239092 -3.0230712747935993 -4.978578591760022 -4.274202349861368 0.3369073333070087 -0.43195936991478856 24.82612524073525
1.9302289173284546 1.5401646644290228 -0.06205029153164876 0.6455686884949854 -0.2446124361229316 4.233869522025657 0.7743682250908357 -1.1838432078218797 -0.3436653719635361 4.947357084929417 4.517614805386813 4.664744276150811 -1.3379630672810539 -3.385677977430083 -2.654525472929569 4.334599223317218 -3.383680919352371 -3.8851861631208076 -1.7633143742042199 1.2102210301617884 -39.906688572595385
-4.929861011641162 1.9819943040549077 0.46927705290952204 0.12428348133561506 -3.114465753082082 -4.123402341123223 -4.73899711347122 0.006013943496082419 1.686132783106233 0.1989564162133668 -2.1522841719189048 -2.4436916602974037 0.3945591510588029 4.454023712670217 -0.1279349123948048 0.4170962068747608 -1.999185042971395 -3.977494585108966 2.843752375728524 -4.48652197617644 -13.837870156571991
0.2709819011528669 -3.0698195839524933 -3.7044276306513746 0.3918889287393865 -1.864357603137364 -3.2184320629981142 -0.496794765167742 1.1562065862146316 -0.621796736250114 -3.6407398288102377 -1.3222521577920876 1.6152414382142641 -4.415955156547815 1.0280317477814123 3.8821356622244654 -4.874928732805905 -2.857221554122289 3.991550402955241 1.55878195556072 4.294695714889508 5.177324194596203
-2.0952329105933343 2.2773246551777726 3.550170367874925 1.2299642626304417 1.8494174340048293 -3.1231990739759654 3.9888763591672642 1.2289138829260562 3.9608564020663035 -4.978225844571505 4.8222905416043265 -3.984593329304964 0.969647203220739 3.8746263515999395 -0.9000540588420192 4.494502430800599 -4.859315662893256 -0.018713835523459288 4.700231943857002 -3.7695676013913513 -94.75093298922647
2.4995929842020352 1.2790736334538524 0.28908839102686024 -4.419439113360628 -3.026892499653553 3.295732618370666 0.017163895720092803 2.3545076747097777 4.572527612998581 3.305241019350076 -2.450945146910355 3.2680911545893245 -4.3956801536324805 1.7159774758504396 -4.540643477794202 -4.891268269336022 -3.984883969813857 -4.945116438092975 2.299821248100244 0.8852132429914032 -7.676898047036987
-1.8462910977624212 3.6632384408835517 2.0193623829940757 0.05607044819054252 4.680665686752057 -0.13394019570307947 -0.5489835454828365 -3.467255541966603 1.2918510627518645 -3.234391579129239 -4.99444928917944 -0.6972740234754813 3.21991847507622 -2.2029783166118175 -4.206350310092811 4.493004461037252 0.5387026956258918 4.063054932879748 2.932141339676554 2.7215170723348425 -7.529428498482028
-3.970157867388312 -1.0521400059494566 -3.6500000564078805 1.9916864051794398 3.1577150696816627 1.674175754300756 2.0589382392006526 -2.976382805076571 -2.3520661979161783 -0.10025174136231918 -3.006655704841968 -4.188864214583054 -4.378998252795501 0.9302420967352507 3.674830523006351 -2.355905545898358 1.4213975258687395 4.40196303457936 -0.9403033020022082 2.0234233833957838 45.22421481779985
1.4648569425962723 -3.8075058767881864 0.5266706535396368 4.7221135552522036 -2.6411265429921627 0.05267535557108971 4.550741605030346 -2.4003244771045242 0.9216883619577318 0.9000199218836658 -2.242186000088362 -0.6842578771423655 0.8456263453443915 -1.2563801212467474 -4.371671932999407 -4.795371497852763 3.023299621697994 -2.475237983740416 -2.200713489528676 -1.932343596445809 75.76639225081932
-4.604722770384996 4.68358077676813 1.1396359346800402 -2.3088261818728006 -4.413239269065128 2.125944091662417 -0.868766835699808 3.8252179187197815 4.505963877283909 -3.195268065255561 -2.9357280884953143 3.6529860545230814 1.800240613602564 4.031278440492674 4.419793723308816 -3.41451144398788 -1.6476952178481952 3.1065399697079847 -0.6536365792456289 2.1710481114676288 -18.672176439502515
-4.1546170293249 -4.045018940580977 2.3678354325172366 0.03250588118398845 3.380362140839644 -2.8349604017192553 2.152344910531757 0.6708402622624385 -4.857077154593491 1.4682858043295308 1.015361057520403 2.7079990508407734 3.0585554421189087 3.077904413314519 3.4755174753014124 -0.8498835787786829 -0.9783624060580385 -4.313867493674292 1.5991484681151915 -1.15802871708914 -56.35816172648764
-1.609632090756472 -1.2336804453488757 -0.9952507318542114 0.6002415739830527 1.0659701810798063 -3.202259312893354 -2.88114796402692 -3.315020217397243 4.824575988655113 0.8999534733714256 -1.1657339564130629 -2.8084547221542753 -0.14492274551581552 1.076456090349426 -1.1349291614789072 4.365942340017231 4.610867276324251 3.410096218485066 -0.4477543360027081 0.37991064927555307 13.523630681992476
1.6967569666077464 0.30979128515228194 -0.6746088773715329 2.0376810332791813 -4.376236809677458 3.170925650552192 -3.1847695980472537 -3.2426988568784862 3.45779677957184 -3.5814628679418856 -2.0560808994491886 -3.6234797546839315 4.212483360306635 3.0013271651030706 -2.127541038707111 1.08544055373833 1.8365148332401846 -1.0255811283494243 -0.3913811354856076 2.5577977560249208 105.39103725766378
-3.913570574969598 2.5170819043764325 0.41778960404298715 -1.7239138854767444 0.02285140105690342 3.649837224281862 -2.9731611818986448 1.2592316398178935 -0.2768148352152906 -4.639974032690183 4.251482439394033 2.0239977256991004 1.7991806719552708 2.722366210978299 -0.4544559969480293 4.78537230893267 -1.3974838011464397 -4.079417837710514 -3.6017197275679482 2.2778556022941965 -18.62142774165419
-2.9129381533082332 -0.49328794133578313 -1.1393182849214432 3.409453032274488 -1.3599178172766804 -1.2856744860432903 3.6779413548097732 0.04313544849800177 4.334465381583307 -1.8151564750661175 -2.81817969187115 3.712771224864241 -4.294683032957441 1.7564203647928966 -3.9938806754824174 4.203102930636131 2.0326513315353463 0.9654924854682401 0.6237994684157266 -4.925816053950492 -17.28995476745714
4.8552035347139295 -4.283758308604137 3.596759962917517 4.774366813303287 0.5812093717834488 -1.5435949526833639 2.405193735788565 -1.0079395829477833 0.8702666707047024 4.014715383414895 1.549198784436757 -3.8953812400344368 -4.664832769191218 -4.556735084524146 3.8982216832153256 -4.464348987752 -2.008981985312851 4.5712242260460485 4.599684956134759 -3.546827035450214 -38.849262375737865
-1.7858707405328178 -2.1088037565780917 -1.66465827651596 -2.370525850639429 -1.1091895826691056 3.635827703393426 -4.081475883952484 3.1148623006954335 -0.8417340723205724 -4.422826793335259 0.1345227716141455 -3.2350375821020574 2.7018803058667817 2.949705253831823 3.776426397417085 3.3574160006262606 0.44266786168202543 -4.262440428230624 -0.09433724066116067 4.4958645471776695 28.250936507551927
-1.6095787317975931 -0.21680577827543868 -2.9049580625791593 3.6200220570361594 4.993531448904772 -4.920454789076139 -1.2894783453870118 1.03351285234449 1.8057280845418253 3.601155342307406 1.3680791761405668 -1.5315332019428296 1.1340408271466114 -0.3144005012372322 3.8359594507938777 -0.3413004301775402 -1.8042587618617545 -1.6494746299826724 2.318055867382375 4.302852567644939 -54.94521852258592
2.3639766300792733 3.861687541579503 -2.444881139059909 -4.191092175212139 -1.6763472643373079 -4.546100732587015 3.5746660195963678 -2.687323814755571 -1.0552943174987082 -4.389181629905736 -0.7381121153123003 -2.0856727860957425 -2.916868336067917 4.670960216035137 -3.1436953239188394 -2.4580877562218086 4.051852094186241 3.6980809335194724 1.3580097257709234 -3.3193797870413553 41.30319920301946
-4.580729934486558 -3.2350198284265117 -2.785341062265113 3.5831149382296292 4.723800012661192 -1.218178131876929 -3.592202368790516 0.6634559377768534 -4.412885793603161 -3.1051661341759162 -2.068831539759116 0.32955802923454147 3.1791331974209065 0.9072889191493783 0.7371387904637512 4.317290861410578 -4.95321827302111 3.126721759388209 -0.3233631289925212 -4.927532540250108 -33.7456883062595
-1.0218802536483085 -2.915050302719165 0.6335318422987148 -0.9526522583163768 0.12119800808068604 -1.4931587641925947 4.949977488419149 1.2145997939696258 1.5198054856968524 4.520163302898483 -1.4224255130701637 1.2430114491789173 3.2359988471066643 1.1429745403468345 0.4131859421881279 1.4395028598249748 -3.678387685718066 -3.6257019596780315 -1.7691234708765613 -3.3293398709309208 -52.79586705448413
-4.287348845052144 -1.562590991387859 0.7318755296065991 -3.1680589815636537 4.300622237109229 4.855250908250069 -3.4040573242124514 4.837238396378604 -0.03962991434376306 -0.7921804011258482 2.90138032509587 4.919305246873995 1.073906080083951 -1.4518375021654117 -1.9540133008344505 3.7573433271676997 -4.133444640712385 0.8656506437533737 -3.7785024642370733 -0.481107376762397 -86.01894911085998
-3.05320858025528 -0.41682657847635163 -4.455073519226204 2.2394075223662036 2.031064870118728 3.421077154720976 0.014186362482909942 4.885167187611474 1.696133352746041 1.9390894198580213 -0.8062488662352907 0.6383168652535343 -4.829970591082027 -4.6449939537760985 3.3754647733510836 -4.532436783083411 4.8401346234369385 -3.662559722124593 3.478842692604079 3.0791015645814195 -13.80390465633711
2.442556222212506 -4.732727820720751 0.26232652813849544 2.109789654244506 -1.080110108795317 -4.948374177689642 -2.6927318376423193 -0.05509395397226857 -1.9045121594853667 -0.46807245188366053 -0.5643316461228576 -0.4351008087531669 -3.7193142821960414 4.6584513297149 -1.9275764132339104 -2.475248628644253 -2.2585409217035823 0.18051419104163813 -3.056457560224689 -2.8572783664338797 30.489806619156507
4.0794492930469755 -4.17515544456052 -2.205206050364427 -3.271986688175007 -2.4520448616483725 -4.541478204377412 -2.588224304068918 -4.6714528092307885 -0.41441116934818645 4.500591050412568 4.408023455777567 -1.3627665823338164 0.608250810817581 -0.29747247021766565 3.948810889845804 -1.73429515328817 -0.20350244849330146 -3.115431100789705 -1.2634085342878798 3.9420380490380946 12.080728366867623
-2.9315388129253095 0.2077257668982817 0.7235299062948952 3.374929667788802 -4.946662948504916 -1.7760397703082775 3.332821038666614 2.904014441037667 -2.3094116631745987 2.761660737017518 -4.608842524713807 2.8735729071581293 -2.394989995339676 -0.6000363523909318 -2.270967033820307 -2.3231570555739314 -3.3049913168952894 3.9607583458388245 0.9931910660371717 0.5067554294765504 0.5399071393978567
3.1744416651258636 -4.284629854498135 4.428647458233492 -1.9224757879911136 1.8545721409909275 -0.5162554218758286 -3.8703617978776803 -0.8698740880147202 1.895264239058033 -3.8777523373359637 1.2561987259200036 4.097612838588191 -3.5724316055895997 1.5925495961390999 -3.5172113999319263 -3.8235864130218977 -2.9335554533807775 -3.084782717979092 -3.3187051561411196 3.4552623869118833 -3.4628285493915705
1.0921259944263895 -0.4681215764395663 -0.5529196428969652 -1.7694572383796112 0.982681076076056 1.9723217577120709 0.36190573144238325 -3.3147979090083357 1.303865969938042 -0.9978607728675701 4.3807536409790995 2.8023378473410325 0.42428851683551905 -1.3442438531575696 1.388938751507066 -4.441269606780095 -2.003206277692434 -3.5206519265422553 4.4053953718135865 -3.069587244150085 -42.82473739395062
0.8831446664467988 4.393578357201664 4.93530126439844 3.1792498779251765 -0.011605880304129457 3.5920903838778138 -1.512659257788378 2.3122935699403255 3.840939659938673 -4.49710724329544 0.5790190090400547 -3.632603036641162 4.988288097937465 3.3123597287699305 2.8245657230850227 -1.9541725943349242 -0.5181933736744053 2.1297138110974743 3.6523958397411302 1.380098854609293 4.265306220879653
0.617127065653583 1.5737386059757235 1.4822484293624392 -0.806394597188385 -1.7022447686312479 -1.1973656384167608 2.8865117392615334 4.698744007738572 4.230420967401326 -4.563270503169639 -1.319136903701482 -2.1478481644109015 2.8351934850289187 3.6456704088480745 0.6707046954191496 -0.09000518457884432 4.215026830238379 4.824359897125692 -0.6361483162354062 -4.017605505023722 -3.058988521748489
0.3628901184278117 3.353140320269498 4.376657224447941 0.6649545047867589 2.8489934936996786 -3.1639683686659215 4.627144853051506 4.14538126304172 -4.562828129357697 4.919517890779709 -3.1216223076485425 -3.3297318872218638 -0.31884178102861327 -2.6030657440697946 -3.192657826018437 -0.33964023419352696 -1.3018551935370617 -1.016280885236276 -4.203081859726945 2.3458397602579772 -20.553097248991946
-0.7101732357747634 0.42069584086018263 3.731928983533031 -0.8129022012319016 -2.3357655850431724 4.124678150780511 4.885741720617421 3.241537077955387 1.2363301059154006 -2.5396921002890984 0.4312529480831131 -1.8936123372455347 -1.344549191659532 -4.2653856817177225 0.14196899043910705 0.5368051787706962 4.724504204233906 1.4798176580597246 -2.993684624117663 4.4819213275105465 12.142861577751226
-3.3870910999522383 0.9813670852900973 3.0252661539901116 -4.871042873997695 4.224974779294357 -2.0763360406158893 -4.031955184482966 1.69269558309594 -3.150636751741127 4.3614256554509865 4.89731015488794 -3.2113928445636253 -1.5294588278218946 -1.2729841697176028 -3.6188087878600217 1.3052506485260942 1.734890712967835 4.773592162737293 3.2431347193216915 -3.486749326581242 -76.65790799972531
-4.672974621710237 -1.6837143550875169 3.6681687314916456 1.3397276014758175 4.1172765189020595 -4.6223459360874175 3.9376217512944294 0.7668080808915629 -3.68358805837816 3.2831893035653223 -4.823331680800927 2.5297662561249794 3.727222961234638 4.992034386930875 1.3064106887690583 1.6224538053951836 -0.35231271196166336 -4.156441663293782 -0.06345210007783297 2.344465247109124 -33.20384264158163
-2.1641426071101098 1.2758731731952473 4.67942782722943 4.214040583706417 0.30022463264010746 -2.59472362608679 0.7631549476967834 3.5366649161155745 -4.203646547841179 -0.9049106201282235 -4.9753472099673735 -0.851058236292678 4.034253315835306 2.794535128453136 -2.513842632477896 4.113892798181471 2.474374439638492 4.446689962932513 -4.909451474018266 -1.1279428004123568 27.130415236427588
1.5832401297952288 -2.0184545178545275 4.844800854847071 2.783809080187466 -3.375611215247374 -3.1498524829538823 4.559069836762905 1.9942578334289909 -1.4026525528360425 -4.321699148201076 3.878046181011568 1.8643679257612895 -2.2100349876133976 -3.147683038487007 -4.84541244704904 -3.996126287381858 0.678895370713688 0.9047304663117632 4.554341241717081 -0.4332774099952186 -22.702450379333683
4.9643445473384915 4.921337338190913 -4.888247103976141 -1.1718313443795694 -1.8744992131529283 -0.9913858500757735 -4.655073719894448 -0.2215204771771928 2.2426876456133273 1.3486424386648093 1.9080740739205773 -2.764292465041567 3.9129108028581 0.7421329285451126 -3.9907875702997475 -4.444154596881777 2.9967008846357333 1.5427577208259224 3.312663075051562 1.9366741583639815 59.45693096896048
-0.27032292012779546 4.710355336282504 3.4945819290999474 -1.8310715413893588 2.4261828911088372 0.7081539351285135 4.275477894053996 -3.2114897734031467 -4.648911537333168 2.8406148815081487 4.625183010471387 -2.44171171034558 2.528890838837653 4.365630856080292 1.7147135118813148 3.272369359769643 0.6054077434011411 2.9331331488545453 -1.6487263031370225 2.2883788810015506 -10.851177273996822
0.4761583021489759 0.652311855717377 2.2106756028087364 -0.8274179964308717 3.0288048063449917 3.680263867221063 2.3687767623271627 0.2855858772999218 3.2885909707992944 4.566741125586427 -2.4493255724116136 1.2973906207607966 3.0542368968138884 3.1512423508911684 4.23575036491788 1.776501089474138 -2.0492704088126423 0.8266778278813627 2.9796169761760236 -3.1677734216675835 -57.575408543757355
4.859962521522974 1.125393846152507 -0.7130412862510385 -1.0647115833200536 1.2416709874053469 1.9343660936545328 -4.802228255075921 -2.002878602349446 4.501895855480658 3.846138071781784 -0.2112207291400896 -0.5700871970846872 4.435098476897952 -0.5293593894742585 -1.1870814898373294 -1.9078100391087203 1.1800378125972033 2.2792447836697036 -0.7240213116873528 3.7487663318272197 33.15759173770702
-4.134440062548885 0.0042905973702183076 3.474847810923599 0.6491124418897343 -2.5868379411835365 -2.6054977977064766 -1.9071954316689932 2.290748925835194 0.030455850825253705 -1.9689953614866509 -0.7319588429323662 -0.9677923658310235 -0.5026628997664133 1.9538580095813662 -3.3917136208995924 -2.09216403137909 4.833885482788949 2.1981044237742955 -1.0296642191332261 -3.888785252845098 16.82433410364704
-0.35951344101957616 4.021535032505433 -2.2820829666194187 0.16884149324967268 1.1095607605379456 2.4756450049141145 -2.679194888228359 0.38804132995120977 -1.0638435989842696 2.902472919346808 -1.4313957450539871 -1.6359042262273538 2.3527581946119955 2.3097976853328532 3.4001480391946135 -1.6498238982755007 2.7409363392458452 -3.068086220471893 1.1509639968003702 4.120182658750176 37.49429845403825
4.415895241164002 1.3927276749694748 2.194463384891047 -1.2076324220307777 -1.3830155088063734 -1.9319857105666518 -0.15470131557570177 3.1266807706934223 0.895949729317941 0.6348083300255647 -4.408270623952788 -4.630919776599141 0.6151210031676779 2.3342121289970796 1.4912437177846316 0.05522025624197546 -3.2682220859670483 4.641015834644918 -0.14305679655006998 3.2844697181458216 11.280896358251368
3.2628068557303465 2.771073380022628 2.8790152197296335 -2.52303313492245 3.8543276712778862 -0.7177870101223824 1.2894263841642806 -0.7953053296100059 1.5595318768383262 -1.2424324846651738 -2.9981048869678206 -2.0551799291588404 -2.1124427096599065 -1.4737861257316922 -4.156441663172931 -3.4222990117492524 2.3750307256380534 -4.177925245539851 0.1790042324430443 -2.117328565643377 1.13716588944071
4.320454846605141 3.557650826465842 0.9938737748945572 2.7380421254540614 -3.8200147081982614 -0.9699534195755817 1.22093819373527 -4.367941294236493 -2.7493073241539667 -4.19409057348072 -4.726940136535336 -4.023517565933527 -1.3813469013440303 -0.28113613972429263 0.0632541363370196 0.7729763982242313 -3.312212688747822 1.4873969882937397 3.6689470384031146 -4.357244279861245 45.3451952935408
-3.6095838664447344 -2.8039558239651328 2.585014846330452 2.2779553904305256 3.286813029675619 -1.0639197933592248 4.550132499120371 -2.9881851852212304 -3.278137400236157 -4.532539263781911 4.646157307386851 0.009155600405486908 -2.8944091832424537 -4.752967415664804 -1.6720126598110752 -1.3150913780086326 0.2484594664545723 -3.140385062743473 -4.002112181246373 -1.6519388353757023 -29.154374065765516
-4.429741361265968 3.632989938040211 -4.315202687900993 -1.434217772013736 -1.550858910214561 4.17196777520202 -1.6093243897096867 0.32926782464982907 -0.5654264970361353 -3.0801100603238742 4.0553998739666675 4.236216832108553 -3.139114202668667 -0.04938402493045224 -1.1991257974454204 -4.123583202024221 -0.5633256846572801 -4.006797486008823 -0.020122393994307153 1.0244518401924196 -0.6948363295832918
-4.330038291460815 -1.2521940413805774 -2.9007180666502306 -2.5392852479268635 3.491175471358595 -1.85226639513556 -4.419019310496905 3.9188350306191815 2.514883764518098 0.2857844915368526 1.6401061330196605 -3.2898754446612024 0.8923024239125832 3.4813396113890818 2.0297555159629947 -3.284940410883248 -0.8761931562401095 4.0585478953643825 -3.0201469682746582 -1.8392138901200052 -32.88257661284636
-1.8971425166875533 -0.66653787964934 2.841940630082574 0.4382188644546332 1.461543721329778 2.9801974963713302 -1.5869391783953066 4.283713500045934 -4.89018840514855 -3.3613371498516265 -3.837100047465044 -2.336043833331023 1.5385521972400937 -4.967444686214996 -4.6038025713492985 0.8740348371120099 -1.6032398595216115 -2.5616073834821407 3.592658186794713 -4.028127910143139 -12.82913835526188
-0.22848014983802045 2.017475077758596 -1.1341608546987327 -3.8357832830576233 -2.8026819064963115 -3.38555982933316 -3.4760066798984504 -3.4853212641473608 -3.1527425432670286 -1.3579206581073433 2.611017754322596 4.872329347883657 -1.0629961320655235 1.8635897764922955 -0.904316772392808 -2.953657900876081 -2.5031495452649857 4.0129734156606585 4.092444251140062 -2.7035761387243475 -25.57525838956342
4.838115532920973 -4.978375588966824 2.262486598461609 -1.1532060388217245 2.8961732535189597 -4.556013750780574 -4.077775230647541 -1.0349608156564183 -0.8219187215643977 -0.41724360827756346 1.2405360064575186 2.088445491265065 0.04733990722194825 1.1387676781276674 3.7512464495098214 4.96751834516081 1.093917900754037 3.700929104561027 2.0262044833557047 -3.1236468396031656 -56.77466524923818
-0.4463568178849364 1.8000510398740666 1.0161792711804063 2.2483693452621942 -1.7600491963422127 -3.7514912982183803 -0.8133723190103765 0.8455183045787509 4.830896860974935 2.1758326269574315 4.662299351805256 0.5992664018781726 -1.3341406743302842 -0.6862774815555941 -2.9347091703113817 -4.640695309997946 0.860160319195284 4.2835325024113295 -2.465705846594358 1.5022772995534108 -16.837683400004714
3.5217967964606256 -0.9782921703748872 -0.3875885074600749 -4.406484445686628 0.20953768299561748 -3.110094755689911 2.843894597330171 -4.423744054172208 3.316006276632965 -1.3154005435998242 1.015336063064681 -4.96845779978769 -0.10386536920036349 0.5130575698083106 -1.7563813873423606 2.4891971010526603 0.2715908790555952 3.804628347561433 -0.4783772456904378 0.9334310276360194 5.399009116116897
-0.8584113804027913 1.7233126973705009 0.5280494449103932 1.6714208226258425 -3.490154306419816 -3.9943691356570765 2.881254945534021 -3.1161466879179676 3.224822805438558 0.4557200754198458 1.0139548183732225 3.7642700783288525 -0.7282986510953782 4.135292227807563 -2.3954154067808533 4.673302253268005 -0.8264057153653237 -4.332820320695824 0.7831806600747857 1.4586396754221411 -16.179117444666975
-3.662019415376492 4.696462342993607 3.790649694450874 -3.352420391780655 -2.6622360505914666 -4.7844847523953895 -0.3607168563349452 3.2352368760968773 -4.544920859674647 1.4451326632527985 0.9655885033312916 -0.9185095655010231 -4.123081005118442 4.407970906879669 0.3980171141814024 -3.207932631433118 2.8043145141077206 1.012483383158603 -3.028949991383736 -4.412248020021378 -19.353386896227867
-0.6471696867429397 0.6496742943327423 -1.7857392822819893 -4.198734557640607 0.8113180958853459 -2.8627983656326608 -2.9481024359750774 3.039673969035869 -3.135536848645173 2.2777319168800574 -3.5256233766812137 4.311538300005154 -2.7566022999770223 -2.1920030018326164 0.4472039103451273 0.3270054793263055 -1.3763638941084713 -0.7233950152807278 -1.873032498637226 0.4229417091369605 -44.86618761752229
2.4412280475444703 -0.061854608750787854 -4.499649785470947 -1.3356402891944272 -2.596250094642456 2.014716918152893 -2.447757233962702 -2.921507031531595 0.27514936731314954 -3.7814051383184855 2.583224410526654 4.227470280470273 0.5460988408262306 -3.3385765323106553 -2.793856744170431 -1.3245464254966324 -0.5342615757966431 -1.4775748113848906 4.18639111525046 1.626526016554907 16.306564399638667
-3.694201520493605 2.0893236343383066 -3.5821964181658372 0.4058090862333943 1.8587961388260563 0.4632277378017422 1.1865780811317723 -1.8976999874121416 -4.2030449192880575 2.3281282254473723 0.11895234896539897 0.7275467835606575 -1.661241189718472 0.93157286294253 1.5699708614081498 0.7115039628877078 1.4829112702214378 1.8754757844126981 -3.9131698509134516 2.006882810575026 16.977802337191214
1.793307493646779 -1.1835065161324296 3.35026181542778 -4.416861794309595 3.113588524290762 -3.337594563022297 -1.672993248433301 -3.9019848180875316 3.044412086479868 -3.5649571555646933 1.0375192685220522 -3.6487966557606666 1.8695633234631543 -3.033609625866039 1.7879009248931332 -1.4424775385209507 -4.919051550898761 -2.457612557075489 4.637670128904809 -0.6106070460638771 -69.78199292884808
1.0366102671243507 -3.5573549960983897 1.4232915140654212 -4.83803735014769 -4.447281903601076 1.7775964830419655 -1.1066941013002851 -3.8727424973987103 4.617912024039812 -1.6815241677244055 -4.504741015962887 2.5143005566607695 -0.5634293485192003 -3.3047945264178145 1.3392967042569657 -1.2538913973938626 -4.438998534353347 1.9474035394380085 0.9787344719832127 3.280775576190054 -2.3658009870061107
-4.227021116503944 0.7559865077983305 -3.134609186456764 3.5263285664777637 -0.2416851394640398 1.003039475741959 3.557538636738089 1.139223567684664 0.35874706328500316 -2.3641768475737193 3.5437201666480753 -2.888859691569098 2.036517831737447 -1.3890774363740075 4.679194255858336 1.8990313877395835 -4.246638943790035 0.6770298120434042 -1.186678253251948 4.913261131013289 -25.96496004877566
1.9313157622686683 -3.27093959205493 -4.6143113911314595 -0.9780333126297416 -3.726422929791413 -4.812242326152277 1.4975113824989759 1.9983406775405772 -0.009643478193860133 -1.0729414260011563 2.944057944520667 3.137290536387212 -3.7461288817897365 4.601301701405152 0.8917155441981395 3.0626088792199635 -2.9425067410013783 0.19100229910399769 -2.4020097009848316 3.161645805420047 -13.82413359033131
-4.050177649297186 -2.474492282354425 -4.305282347485652 2.885203949825602 -1.9594415576704902 -3.777620842447864 -0.6167290644971537 -0.7015105119682472 1.036389293920533 3.258805902013261 -4.888893347203616 2.456084080125552 4.772181084874191 -0.21340825320541512 0.7250911178851984 -4.885000789566337 -0.9870997318240953 -4.372216968823656 4.669050155046877 -3.910030423265589 -1.0768324321071496
3.1936698347967667 4.758351761166605 -1.2534997883653687 -4.181475484890265 -4.975871444461778 -0.3154252975105081 -4.035800989770517 -2.8997912072482923 -2.147739815849307 3.138468981931057 1.0367310470039754 -1.0535436262782962 1.1381562555497506 -2.6140082875865533 4.546550792774074 -4.330242317093353 4.435747703970678 4.87014735996256 -4.322181707300587 2.375417441219618 54.766667954864765
-3.084539037621105 -2.549290563760187 -4.288252889052346 3.4127662418181366 3.225017043011407 3.804659218914125 -1.1247289700029328 4.364637684464858 0.6756741421083792 4.912061764327817 4.485947121866339 1.9529380709338007 -3.1948136181992846 -2.7685375031744464 0.7363035868529622 2.6861661316165106 4.020600507596761 2.685038243032592 -2.1596793268870806 -1.1536618618711216 -37.58212229382744
1.940081077758471 -0.14438744527517589 1.4542791871624372 0.19176412605831317 0.0153555676688919 -3.855048776547428 -0.9452998755460378 4.3818711308260045 -0.441393607686031 2.3434396586919517 -2.2912225488821516 4.876574875569865 -3.280131551367046 4.807666497390198 1.3930579739954085 -3.3080590301130264 1.2029785148425738 -1.13350209575932 -2.462843271774614 -1.435563799748838 -18.468680443148017
2.2995976143271557 -3.5981231362265396 -3.0992821434551 -0.9122308679803437 -0.6718905280784089 0.08349676649546556 -2.170823102497562 -3.6658473400960556 4.618788758165213 0.4510280328780425 -0.5665579347604304 -1.1262486429490015 -4.986708822132968 -3.076964584954236 -3.3623963354777633 4.0294334761866555 2.4980545184791882 0.06641584327951477 -4.693165316610215 3.9776226025489727 42.043685988404796
2.783485201203555 1.1389634739793797 -3.013204807045354 3.510513302034383 -2.5574156299914574 -0.9894264429759065 -0.4320973845039511 -4.306298168280876 -1.8159462493876921 3.532691313663813 -2.3125159700028073 -1.7519255542697065 4.173010136894254 -0.8847774203995185 0.17239754715216016 -1.9608342331610507 3.9906167113038222 -1.219381534434537 -2.599505268254351 -1.0539158903168344 88.80057348510968
3.986057192457375 2.898621491688753 1.4201472569279563 3.6912721916646607 1.9050379990517863 0.5825644758736299 -0.4997135825260024 -3.977403146389099 -1.523231789026446 4.279424290616046 4.236951805879135 0.8509759728643171 -0.15214874513692145 1.6058981826374499 -3.618875196770621 -1.2254350483826357 2.4564192839695753 -0.638299024242162 -0.41919434540724154 -2.848013339414468 23.792159407351903
-4.253511815402459 -3.5335999775072446 4.365192026041031 1.694769274837319 -0.6496253123786211 -0.8836332675346528 2.971078611095929 4.797131220881031 4.702306610934359 0.11047462034583333 -2.0243694159383665 -4.626150514717125 1.6442440985533393 -0.5857728070568813 2.76804640912958 -3.285337634508121 -2.674398406548235 0.0005272955402997326 4.678807238816274 4.01058142255437 -44.47366110330992
1.5518089842091367 -0.07726842502952636 -0.218105217877973 -0.010935625505720026 4.240630783636146 -0.021318171858309753 0.5847382404640866 4.70288190198446 3.7974404241471156 -2.924751173927133 3.195134836831757 1.8682123392611638 -0.22002050822417196 2.1173405885903893 -2.2126774613224476 -2.7358352639632044 -3.7294657776403026 0.16666885881878635 -1.4888519008802046 4.801746817414351 -43.31283644251016
1.1013094302729893 4.800667512932206 -0.04366364268391898 0.7822985346399483 4.632890537999399 4.152381471798964 -1.5114079503414346 2.497533278758512 1.8902223356707477 3.1520439101866433 -3.1756312437917957 2.893525456055385 2.325701904499563 -3.1727578486614263 4.919555361169737 -4.325215977517094 0.6181585851124378 -4.694079372552219 -2.2304560161154594 -0.4063085865132958 -31.46380109892876
-1.671174337480843 -1.2020716607210935 -3.7543687125254275 -0.9179167716907086 -2.5641412065012714 4.069309214092968 -3.605150491513769 4.990914528238832 1.0040485877427106 -4.806274464464753 -2.1266023755287855 2.115025982675225 4.817717717525056 -4.09833368841439 2.996432912165848 3.039573676144304 0.5373616020086249 1.480121891919076 -3.1388769435977 -1.7943422829953715 -5.486024360752335
